<?xml version="1.0"?>
<opencv_storage>
<cascade>
  <stageType>BOOST</stageType>
  <featureType>HAAR</featureType>
  <height>20</height>
  <width>20</width>
  <stageParams>
    <boostType>GAB</boostType>
    <minHitRate>9.9500000476837158e-01</minHitRate>
    <maxFalseAlarm>4.0000000596046448e-01</maxFalseAlarm>
    <weightTrimRate>9.4999999999999996e-01</weightTrimRate>
    <maxDepth>1</maxDepth>
    <maxWeakCount>213</maxWeakCount></stageParams>
  <featureParams>
    <maxCatCount>0</maxCatCount>
    <featSize>1</featSize>
    <mode>ALL</mode></featureParams>
  <stageNum>20</stageNum>
  <stages>
    <!-- stage 0 -->
    <_>
      <maxWeakCount>20</maxWeakCount>
      <stageThreshold>-1.1437265872955322e+00</stageThreshold>
      <weakClassifiers>
        <_>
          <internalNodes>
            0 -1 314 1.1774415150284767e-02</internalNodes>
          <leafValues>
            -2.9153987765312195e-01 5.0089764595031738e-01</leafValues></_>
        <_>
          <internalNodes>
            0 -1 412 -2.9688421636819839e-02</internalNodes>
          <leafValues>
            5.6613481044769287e-01 -1.7743538320064545e-01</leafValues></_>
        <_>
          <internalNodes>
            0 -1 402 -4.1481122374534607e-02</internalNodes>
          <leafValues>
            7.0111149549484253e-01 -1.5704207122325897e-01</leafValues></_>
        <_>
          <internalNodes>
            0 -1 442 9.0826749801635742e-03</internalNodes>
          <leafValues>
            -1.5783867239952087e-01 5.5530691146850586e-01</leafValues></_>
        <_>
          <internalNodes>
            0 -1 54 -1.1855885386466980e-02</internalNodes>
          <leafValues>
            6.5840995311737061e-01 -1.0166541486978531e-01</leafValues></_>
        <_>
          <internalNodes>
            0 -1 86 7.8507289290428162e-03</internalNodes>
          <leafValues>
            -1.0947573184967041e-01 5.9323477745056152e-01</leafValues></_>
        <_>
          <internalNodes>
            0 -1 153 6.0207857750356197e-03</internalNodes>
          <leafValues>
            -1.2907582521438599e-01 6.4670014381408691e-01</leafValues></_>
        <_>
          <internalNodes>
            0 -1 590 4.6304874122142792e-02</internalNodes>
          <leafValues>
            -1.5062120556831360e-01 4.7125059366226196e-01</leafValues></_>
        <_>
          <internalNodes>
            0 -1 624 5.6761357933282852e-02</internalNodes>
          <leafValues>
            -8.7270185351371765e-02 6.6215050220489502e-01</leafValues></_>
        <_>
          <internalNodes>
            0 -1 126 -9.6272230148315430e-02</internalNodes>
          <leafValues>
            6.3100773096084595e-01 -1.2494789063930511e-01</leafValues></_>
        <_>
          <internalNodes>
            0 -1 1036 3.1219871714711189e-02</internalNodes>
          <leafValues>
            -1.2531171739101410e-01 5.7021903991699219e-01</leafValues></_>
        <_>
          <internalNodes>
            0 -1 803 -8.4261987358331680e-03</internalNodes>
          <leafValues>
            4.7929415106773376e-01 -1.6540277004241943e-01</leafValues></_>
        <_>
          <internalNodes>
            0 -1 1043 -7.8716482967138290e-03</internalNodes>
          <leafValues>
            5.6282895803451538e-01 -1.2841655313968658e-01</leafValues></_>
        <_>
          <internalNodes>
            0 -1 1050 1.1138273403048515e-02</internalNodes>
          <leafValues>
            -1.0653123259544373e-01 5.9507983922958374e-01</leafValues></_>
        <_>
          <internalNodes>
            0 -1 521 -8.6370855569839478e-03</internalNodes>
          <leafValues>
            5.5783152580261230e-01 -7.7101483941078186e-02</leafValues></_>
        <_>
          <internalNodes>
            0 -1 270 -1.4917948842048645e-01</internalNodes>
          <leafValues>
            -7.3237168788909912e-01 5.6312169879674911e-02</leafValues></_>
        <_>
          <internalNodes>
            0 -1 793 -2.4662604555487633e-03</internalNodes>
          <leafValues>
            5.4685121774673462e-01 -1.1459362506866455e-01</leafValues></_>
        <_>
          <internalNodes>
            0 -1 28 -2.9976919293403625e-01</internalNodes>
          <leafValues>
            -7.5905478000640869e-01 8.4575012326240540e-02</leafValues></_>
        <_>
          <internalNodes>
            0 -1 279 7.8982993960380554e-02</internalNodes>
          <leafValues>
            -1.1156490445137024e-01 5.9796249866485596e-01</leafValues></_>
        <_>
          <internalNodes>
            0 -1 701 -5.3488733246922493e-03</internalNodes>
          <leafValues>
            4.0514799952507019e-01 -1.5765419602394104e-01</leafValues></_></weakClassifiers></_>
    <!-- stage 1 -->
    <_>
      <maxWeakCount>31</maxWeakCount>
      <stageThreshold>-9.2261093854904175e-01</stageThreshold>
      <weakClassifiers>
        <_>
          <internalNodes>
            0 -1 1045 -1.9658815115690231e-02</internalNodes>
          <leafValues>
            3.9655172824859619e-01 -2.2119815647602081e-01</leafValues></_>
        <_>
          <internalNodes>
            0 -1 224 4.8573419451713562e-02</internalNodes>
          <leafValues>
            -1.1245795339345932e-01 4.8877483606338501e-01</leafValues></_>
        <_>
          <internalNodes>
            0 -1 1056 3.3480653073638678e-03</internalNodes>
          <leafValues>
            -1.4653517305850983e-01 4.4110989570617676e-01</leafValues></_>
        <_>
          <internalNodes>
            0 -1 96 2.7222286909818649e-02</internalNodes>
          <leafValues>
            -1.1149583011865616e-01 6.3015353679656982e-01</leafValues></_>
        <_>
          <internalNodes>
            0 -1 66 -1.4079784974455833e-02</internalNodes>
          <leafValues>
            4.0398052334785461e-01 -1.3256151974201202e-01</leafValues></_>
        <_>
          <internalNodes>
            0 -1 292 2.1181434392929077e-01</internalNodes>
          <leafValues>
            -5.4903864860534668e-02 6.4606475830078125e-01</leafValues></_>
        <_>
          <internalNodes>
            0 -1 686 5.4208084940910339e-02</internalNodes>
          <leafValues>
            -8.5523769259452820e-02 6.4621812105178833e-01</leafValues></_>
        <_>
          <internalNodes>
            0 -1 503 1.5288460999727249e-02</internalNodes>
          <leafValues>
            -9.1807208955287933e-02 5.0203567743301392e-01</leafValues></_>
        <_>
          <internalNodes>
            0 -1 272 -1.1656972765922546e-01</internalNodes>
          <leafValues>
            4.6312874555587769e-01 -1.0264530032873154e-01</leafValues></_>
        <_>
          <internalNodes>
            0 -1 747 1.9069023430347443e-02</internalNodes>
          <leafValues>
            -1.2374567240476608e-01 4.6859735250473022e-01</leafValues></_>
        <_>
          <internalNodes>
            0 -1 1059 2.2361371666193008e-03</internalNodes>
          <leafValues>
            -1.1361516267061234e-01 4.5909905433654785e-01</leafValues></_>
        <_>
          <internalNodes>
            0 -1 595 2.2312918677926064e-02</internalNodes>
          <leafValues>
            -1.1877772957086563e-01 3.8827374577522278e-01</leafValues></_>
        <_>
          <internalNodes>
            0 -1 725 7.1541974321007729e-03</internalNodes>
          <leafValues>
            -7.3618762195110321e-02 5.8729624748229980e-01</leafValues></_>
        <_>
          <internalNodes>
            0 -1 724 -2.2938409820199013e-03</internalNodes>
          <leafValues>
            4.4872224330902100e-01 -7.2459176182746887e-02</leafValues></_>
        <_>
          <internalNodes>
            0 -1 930 -7.1279499679803848e-03</internalNodes>
          <leafValues>
            3.1039425730705261e-01 -1.4185123145580292e-01</leafValues></_>
        <_>
          <internalNodes>
            0 -1 522 5.1849581301212311e-02</internalNodes>
          <leafValues>
            -1.0871040821075439e-01 4.1206231713294983e-01</leafValues></_>
        <_>
          <internalNodes>
            0 -1 1020 4.1528113186359406e-02</internalNodes>
          <leafValues>
            -8.0417066812515259e-02 5.0285941362380981e-01</leafValues></_>
        <_>
          <internalNodes>
            0 -1 220 2.0060837268829346e-02</internalNodes>
          <leafValues>
            -9.9886983633041382e-02 4.3064045906066895e-01</leafValues></_>
        <_>
          <internalNodes>
            0 -1 85 6.8813441321253777e-03</internalNodes>
          <leafValues>
            -7.0941813290119171e-02 5.5187958478927612e-01</leafValues></_>
        <_>
          <internalNodes>
            0 -1 84 -2.1684656385332346e-03</internalNodes>
          <leafValues>
            4.1237151622772217e-01 -1.0726451873779297e-01</leafValues></_>
        <_>
          <internalNodes>
            0 -1 343 8.0063283443450928e-02</internalNodes>
          <leafValues>
            -9.3145087361335754e-02 4.3276864290237427e-01</leafValues></_>
        <_>
          <internalNodes>
            0 -1 1080 -4.5643724501132965e-02</internalNodes>
          <leafValues>
            6.3765960931777954e-01 -7.5584821403026581e-02</leafValues></_>
        <_>
          <internalNodes>
            0 -1 342 -6.1796065419912338e-02</internalNodes>
          <leafValues>
            4.2514407634735107e-01 -9.2116951942443848e-02</leafValues></_>
        <_>
          <internalNodes>
            0 -1 732 1.5308312140405178e-03</internalNodes>
          <leafValues>
            -1.5129359066486359e-01 2.8972089290618896e-01</leafValues></_>
        <_>
          <internalNodes>
            0 -1 119 5.1363173406571150e-04</internalNodes>
          <leafValues>
            1.2085387855768204e-01 -3.4280592203140259e-01</leafValues></_>
        <_>
          <internalNodes>
            0 -1 119 -4.3601699871942401e-04</internalNodes>
          <leafValues>
            -3.2114863395690918e-01 1.6365672647953033e-01</leafValues></_>
        <_>
          <internalNodes>
            0 -1 1044 -1.2318992987275124e-02</internalNodes>
          <leafValues>
            4.6371790766716003e-01 -1.0600532591342926e-01</leafValues></_>
        <_>
          <internalNodes>
            0 -1 1106 3.6253868602216244e-03</internalNodes>
          <leafValues>
            -1.0806565731763840e-01 3.7803643941879272e-01</leafValues></_>
        <_>
          <internalNodes>
            0 -1 116 5.0010532140731812e-03</internalNodes>
          <leafValues>
            1.0870281606912613e-01 -3.9385005831718445e-01</leafValues></_>
        <_>
          <internalNodes>
            0 -1 98 6.6141679883003235e-02</internalNodes>
          <leafValues>
            -1.5509797632694244e-01 2.8203946352005005e-01</leafValues></_>
        <_>
          <internalNodes>
            0 -1 649 1.0528179816901684e-02</internalNodes>
          <leafValues>
            1.5166971087455750e-01 -2.8771030902862549e-01</leafValues></_></weakClassifiers></_>
    <!-- stage 2 -->
    <_>
      <maxWeakCount>33</maxWeakCount>
      <stageThreshold>-8.8777548074722290e-01</stageThreshold>
      <weakClassifiers>
        <_>
          <internalNodes>
            0 -1 104 7.3898822069168091e-02</internalNodes>
          <leafValues>
            -2.4787363409996033e-01 3.7545126676559448e-01</leafValues></_>
        <_>
          <internalNodes>
            0 -1 55 1.8471863120794296e-02</internalNodes>
          <leafValues>
            -1.1599049717187881e-01 4.3814697861671448e-01</leafValues></_>
        <_>
          <internalNodes>
            0 -1 77 -1.0384914465248585e-02</internalNodes>
          <leafValues>
            4.4811376929283142e-01 -2.0681549608707428e-01</leafValues></_>
        <_>
          <internalNodes>
            0 -1 1039 -1.8636431545019150e-02</internalNodes>
          <leafValues>
            3.5749065876007080e-01 -1.0841474682092667e-01</leafValues></_>
        <_>
          <internalNodes>
            0 -1 966 3.2126992940902710e-02</internalNodes>
          <leafValues>
            -1.4686243236064911e-01 3.4609284996986389e-01</leafValues></_>
        <_>
          <internalNodes>
            0 -1 214 -1.7953060567378998e-02</internalNodes>
          <leafValues>
            4.6088445186614990e-01 -7.5859852135181427e-02</leafValues></_>
        <_>
          <internalNodes>
            0 -1 631 2.7899051085114479e-02</internalNodes>
          <leafValues>
            -1.1262138187885284e-01 4.6668052673339844e-01</leafValues></_>
        <_>
          <internalNodes>
            0 -1 535 -8.1882216036319733e-02</internalNodes>
          <leafValues>
            4.5976728200912476e-01 -9.7376778721809387e-02</leafValues></_>
        <_>
          <internalNodes>
            0 -1 390 -2.5644445791840553e-02</internalNodes>
          <leafValues>
            3.5547840595245361e-01 -1.2444079667329788e-01</leafValues></_>
        <_>
          <internalNodes>
            0 -1 865 9.0866275131702423e-03</internalNodes>
          <leafValues>
            -9.9260084331035614e-02 3.8801079988479614e-01</leafValues></_>
        <_>
          <internalNodes>
            0 -1 758 -2.0507011562585831e-02</internalNodes>
          <leafValues>
            4.0276807546615601e-01 -1.4812250435352325e-01</leafValues></_>
        <_>
          <internalNodes>
            0 -1 252 8.7237998843193054e-02</internalNodes>
          <leafValues>
            -1.1402476578950882e-01 4.5219600200653076e-01</leafValues></_>
        <_>
          <internalNodes>
            0 -1 34 1.9115127623081207e-02</internalNodes>
          <leafValues>
            -1.3930037617683411e-01 3.4364023804664612e-01</leafValues></_>
        <_>
          <internalNodes>
            0 -1 63 -6.8907951936125755e-03</internalNodes>
          <leafValues>
            4.4106346368789673e-01 -8.4278710186481476e-02</leafValues></_>
        <_>
          <internalNodes>
            0 -1 958 -1.1435573920607567e-02</internalNodes>
          <leafValues>
            3.7341657280921936e-01 -1.1163921654224396e-01</leafValues></_>
        <_>
          <internalNodes>
            0 -1 338 -1.3151064515113831e-01</internalNodes>
          <leafValues>
            4.1173794865608215e-01 -9.0379565954208374e-02</leafValues></_>
        <_>
          <internalNodes>
            0 -1 399 2.4175828695297241e-01</internalNodes>
          <leafValues>
            -9.9929168820381165e-02 4.4623303413391113e-01</leafValues></_>
        <_>
          <internalNodes>
            0 -1 321 4.2542189359664917e-02</internalNodes>
          <leafValues>
            -1.3465201854705811e-01 3.4976673126220703e-01</leafValues></_>
        <_>
          <internalNodes>
            0 -1 223 -3.6341793835163116e-02</internalNodes>
          <leafValues>
            5.9198391437530518e-01 -1.0652232170104980e-01</leafValues></_>
        <_>
          <internalNodes>
            0 -1 1060 -1.1069882661104202e-02</internalNodes>
          <leafValues>
            3.9927923679351807e-01 -1.1399225145578384e-01</leafValues></_>
        <_>
          <internalNodes>
            0 -1 836 9.7668524831533432e-03</internalNodes>
          <leafValues>
            -8.2588687539100647e-02 4.2646414041519165e-01</leafValues></_>
        <_>
          <internalNodes>
            0 -1 837 -8.2982834428548813e-03</internalNodes>
          <leafValues>
            3.2082143425941467e-01 -1.3536392152309418e-01</leafValues></_>
        <_>
          <internalNodes>
            0 -1 912 -6.1801699921488762e-03</internalNodes>
          <leafValues>
            2.8728455305099487e-01 -1.4002564549446106e-01</leafValues></_>
        <_>
          <internalNodes>
            0 -1 250 7.6225544326007366e-03</internalNodes>
          <leafValues>
            -1.5000638365745544e-01 2.8595611453056335e-01</leafValues></_>
        <_>
          <internalNodes>
            0 -1 372 5.5472720414400101e-03</internalNodes>
          <leafValues>
            -1.3781835138797760e-01 3.2915380597114563e-01</leafValues></_>
        <_>
          <internalNodes>
            0 -1 362 -9.2079289257526398e-02</internalNodes>
          <leafValues>
            -9.1219502687454224e-01 5.7995572686195374e-02</leafValues></_>
        <_>
          <internalNodes>
            0 -1 841 -6.1476677656173706e-03</internalNodes>
          <leafValues>
            3.5460618138313293e-01 -1.2986645102500916e-01</leafValues></_>
        <_>
          <internalNodes>
            0 -1 978 -6.3840202055871487e-03</internalNodes>
          <leafValues>
            -4.6243038773536682e-01 9.2635378241539001e-02</leafValues></_>
        <_>
          <internalNodes>
            0 -1 772 7.7485679648816586e-03</internalNodes>
          <leafValues>
            -1.2351733446121216e-01 3.4738299250602722e-01</leafValues></_>
        <_>
          <internalNodes>
            0 -1 965 -2.7238164097070694e-02</internalNodes>
          <leafValues>
            4.4796049594879150e-01 -8.5342451930046082e-02</leafValues></_>
        <_>
          <internalNodes>
            0 -1 926 1.5856046229600906e-02</internalNodes>
          <leafValues>
            -1.1503235250711441e-01 3.4682130813598633e-01</leafValues></_>
        <_>
          <internalNodes>
            0 -1 871 9.6715856343507767e-03</internalNodes>
          <leafValues>
            6.3617721199989319e-02 -7.0588219165802002e-01</leafValues></_>
        <_>
          <internalNodes>
            0 -1 253 1.9282447174191475e-02</internalNodes>
          <leafValues>
            3.2444328069686890e-02 -7.8947710990905762e-01</leafValues></_></weakClassifiers></_>
    <!-- stage 3 -->
    <_>
      <maxWeakCount>46</maxWeakCount>
      <stageThreshold>-9.7115033864974976e-01</stageThreshold>
      <weakClassifiers>
        <_>
          <internalNodes>
            0 -1 972 -5.9806153178215027e-02</internalNodes>
          <leafValues>
            4.5222929120063782e-01 -2.3886640369892120e-01</leafValues></_>
        <_>
          <internalNodes>
            0 -1 45 3.8256812840700150e-02</internalNodes>
          <leafValues>
            -8.8267080485820770e-02 4.9936017394065857e-01</leafValues></_>
        <_>
          <internalNodes>
            0 -1 993 6.4084306359291077e-02</internalNodes>
          <leafValues>
            -1.4059358835220337e-01 4.2993050813674927e-01</leafValues></_>
        <_>
          <internalNodes>
            0 -1 162 8.1073626875877380e-02</internalNodes>
          <leafValues>
            -1.1457276344299316e-01 3.7340709567070007e-01</leafValues></_>
        <_>
          <internalNodes>
            0 -1 681 6.8747566547244787e-04</internalNodes>
          <leafValues>
            1.1527527868747711e-01 -3.5020661354064941e-01</leafValues></_>
        <_>
          <internalNodes>
            0 -1 110 1.6867190133780241e-03</internalNodes>
          <leafValues>
            9.7501873970031738e-02 -4.6026706695556641e-01</leafValues></_>
        <_>
          <internalNodes>
            0 -1 110 -7.4922456406056881e-04</internalNodes>
          <leafValues>
            -3.1201359629631042e-01 1.4570286870002747e-01</leafValues></_>
        <_>
          <internalNodes>
            0 -1 145 3.1476274598389864e-03</internalNodes>
          <leafValues>
            -1.5515808761119843e-01 2.8781756758689880e-01</leafValues></_>
        <_>
          <internalNodes>
            0 -1 241 5.8346085250377655e-02</internalNodes>
          <leafValues>
            9.0397343039512634e-02 -5.5220609903335571e-01</leafValues></_>
        <_>
          <internalNodes>
            0 -1 591 -9.2489691451191902e-04</internalNodes>
          <leafValues>
            2.6807141304016113e-01 -1.4636886119842529e-01</leafValues></_>
        <_>
          <internalNodes>
            0 -1 591 7.1450183168053627e-04</internalNodes>
          <leafValues>
            -1.2050890922546387e-01 2.9787427186965942e-01</leafValues></_>
        <_>
          <internalNodes>
            0 -1 315 -3.7950314581394196e-02</internalNodes>
          <leafValues>
            -9.2293173074722290e-01 5.1303539425134659e-02</leafValues></_>
        <_>
          <internalNodes>
            0 -1 353 2.0640991628170013e-02</internalNodes>
          <leafValues>
            5.4423086345195770e-02 -4.5883706212043762e-01</leafValues></_>
        <_>
          <internalNodes>
            0 -1 179 4.1590176988393068e-04</internalNodes>
          <leafValues>
            1.1582534760236740e-01 -2.7732142806053162e-01</leafValues></_>
        <_>
          <internalNodes>
            0 -1 781 8.2095572724938393e-04</internalNodes>
          <leafValues>
            -1.0534541308879852e-01 3.1184741854667664e-01</leafValues></_>
        <_>
          <internalNodes>
            0 -1 114 -2.1517244167625904e-03</internalNodes>
          <leafValues>
            -2.7349597215652466e-01 1.2799181044101715e-01</leafValues></_>
        <_>
          <internalNodes>
            0 -1 138 2.0788809284567833e-02</internalNodes>
          <leafValues>
            -7.3135927319526672e-02 4.4673383235931396e-01</leafValues></_>
        <_>
          <internalNodes>
            0 -1 56 -3.3337220549583435e-02</internalNodes>
          <leafValues>
            3.5404580831527710e-01 -1.1441333591938019e-01</leafValues></_>
        <_>
          <internalNodes>
            0 -1 1115 1.7704325728118420e-03</internalNodes>
          <leafValues>
            7.3790386319160461e-02 -4.6987187862396240e-01</leafValues></_>
        <_>
          <internalNodes>
            0 -1 505 3.2267145812511444e-02</internalNodes>
          <leafValues>
            -1.1474943161010742e-01 2.9842233657836914e-01</leafValues></_>
        <_>
          <internalNodes>
            0 -1 445 4.6617644838988781e-03</internalNodes>
          <leafValues>
            -1.1797315627336502e-01 2.8068822622299194e-01</leafValues></_>
        <_>
          <internalNodes>
            0 -1 168 2.9943907633423805e-02</internalNodes>
          <leafValues>
            4.0017969906330109e-02 -7.7476543188095093e-01</leafValues></_>
        <_>
          <internalNodes>
            0 -1 813 9.3688778579235077e-03</internalNodes>
          <leafValues>
            -1.0142254084348679e-01 3.1810092926025391e-01</leafValues></_>
        <_>
          <internalNodes>
            0 -1 467 5.1770146936178207e-02</internalNodes>
          <leafValues>
            -8.1624150276184082e-02 4.9620741605758667e-01</leafValues></_>
        <_>
          <internalNodes>
            0 -1 396 -4.0633752942085266e-02</internalNodes>
          <leafValues>
            2.1325355768203735e-01 -1.5873463451862335e-01</leafValues></_>
        <_>
          <internalNodes>
            0 -1 510 4.9866400659084320e-03</internalNodes>
          <leafValues>
            -1.0175310820341110e-01 3.1328663229942322e-01</leafValues></_>
        <_>
          <internalNodes>
            0 -1 640 6.7967171780765057e-03</internalNodes>
          <leafValues>
            5.2542854100465775e-02 -7.3062628507614136e-01</leafValues></_>
        <_>
          <internalNodes>
            0 -1 1101 1.5761419199407101e-03</internalNodes>
          <leafValues>
            -1.2317297607660294e-01 3.0095770955085754e-01</leafValues></_>
        <_>
          <internalNodes>
            0 -1 1104 -4.0832096710801125e-03</internalNodes>
          <leafValues>
            3.9403542876243591e-01 -1.0241249203681946e-01</leafValues></_>
        <_>
          <internalNodes>
            0 -1 692 1.6456633806228638e-01</internalNodes>
          <leafValues>
            -4.4653601944446564e-02 6.1731773614883423e-01</leafValues></_>
        <_>
          <internalNodes>
            0 -1 745 5.8781590312719345e-02</internalNodes>
          <leafValues>
            -1.0874391347169876e-01 3.2652291655540466e-01</leafValues></_>
        <_>
          <internalNodes>
            0 -1 466 -1.2046178430318832e-01</internalNodes>
          <leafValues>
            5.5117762088775635e-01 -5.4516460746526718e-02</leafValues></_>
        <_>
          <internalNodes>
            0 -1 221 -1.1474065482616425e-02</internalNodes>
          <leafValues>
            3.5854759812355042e-01 -8.5358284413814545e-02</leafValues></_>
        <_>
          <internalNodes>
            0 -1 368 3.3627215772867203e-02</internalNodes>
          <leafValues>
            -8.9889600872993469e-02 3.8088643550872803e-01</leafValues></_>
        <_>
          <internalNodes>
            0 -1 460 -5.4936497472226620e-03</internalNodes>
          <leafValues>
            2.2528389096260071e-01 -1.4647994935512543e-01</leafValues></_>
        <_>
          <internalNodes>
            0 -1 981 6.9403387606143951e-02</internalNodes>
          <leafValues>
            -6.4016081392765045e-02 4.8988497257232666e-01</leafValues></_>
        <_>
          <internalNodes>
            0 -1 190 8.9314114302396774e-03</internalNodes>
          <leafValues>
            1.1831278353929520e-01 -2.6815608143806458e-01</leafValues></_>
        <_>
          <internalNodes>
            0 -1 198 -1.8285146355628967e-01</internalNodes>
          <leafValues>
            -6.0529321432113647e-01 4.8003520816564560e-02</leafValues></_>
        <_>
          <internalNodes>
            0 -1 146 -6.7287031561136246e-03</internalNodes>
          <leafValues>
            3.3058413863182068e-01 -1.0448608547449112e-01</leafValues></_>
        <_>
          <internalNodes>
            0 -1 805 -2.3326933383941650e-02</internalNodes>
          <leafValues>
            4.4936999678611755e-01 -6.3915796577930450e-02</leafValues></_>
        <_>
          <internalNodes>
            0 -1 31 -2.3716840893030167e-02</internalNodes>
          <leafValues>
            3.2612559199333191e-01 -1.0052714496850967e-01</leafValues></_>
        <_>
          <internalNodes>
            0 -1 989 -5.4064538562670350e-04</internalNodes>
          <leafValues>
            -3.0559977889060974e-01 1.1713576316833496e-01</leafValues></_>
        <_>
          <internalNodes>
            0 -1 990 3.3167356741614640e-04</internalNodes>
          <leafValues>
            1.4065222442150116e-01 -2.1625515818595886e-01</leafValues></_>
        <_>
          <internalNodes>
            0 -1 998 2.9926732182502747e-02</internalNodes>
          <leafValues>
            -7.3080085217952728e-02 4.6777936816215515e-01</leafValues></_>
        <_>
          <internalNodes>
            0 -1 254 3.0208458192646503e-03</internalNodes>
          <leafValues>
            9.2928245663642883e-02 -3.6682453751564026e-01</leafValues></_>
        <_>
          <internalNodes>
            0 -1 584 -4.5473299920558929e-02</internalNodes>
          <leafValues>
            -8.9243781566619873e-01 2.9966806992888451e-02</leafValues></_></weakClassifiers></_>
    <!-- stage 4 -->
    <_>
      <maxWeakCount>43</maxWeakCount>
      <stageThreshold>-1.0148295164108276e+00</stageThreshold>
      <weakClassifiers>
        <_>
          <internalNodes>
            0 -1 89 1.8490402400493622e-01</internalNodes>
          <leafValues>
            -2.1191680431365967e-01 4.2042756080627441e-01</leafValues></_>
        <_>
          <internalNodes>
            0 -1 17 2.0763382315635681e-01</internalNodes>
          <leafValues>
            1.0446112602949142e-01 -5.4365551471710205e-01</leafValues></_>
        <_>
          <internalNodes>
            0 -1 176 8.2933891098946333e-04</internalNodes>
          <leafValues>
            1.1448408663272858e-01 -3.5311967134475708e-01</leafValues></_>
        <_>
          <internalNodes>
            0 -1 545 5.4538222029805183e-03</internalNodes>
          <leafValues>
            8.0297797918319702e-02 -5.2557051181793213e-01</leafValues></_>
        <_>
          <internalNodes>
            0 -1 109 6.0995034873485565e-03</internalNodes>
          <leafValues>
            8.0748036503791809e-02 -5.6199574470520020e-01</leafValues></_>
        <_>
          <internalNodes>
            0 -1 995 5.8535370975732803e-02</internalNodes>
          <leafValues>
            -5.8300480246543884e-02 6.2137830257415771e-01</leafValues></_>
        <_>
          <internalNodes>
            0 -1 18 6.5723620355129242e-04</internalNodes>
          <leafValues>
            1.2437174469232559e-01 -3.1876328587532043e-01</leafValues></_>
        <_>
          <internalNodes>
            0 -1 959 2.9053503274917603e-01</internalNodes>
          <leafValues>
            -8.5220426321029663e-02 6.3885486125946045e-01</leafValues></_>
        <_>
          <internalNodes>
            0 -1 1 7.6658150646835566e-04</internalNodes>
          <leafValues>
            1.7287625372409821e-01 -2.4511381983757019e-01</leafValues></_>
        <_>
          <internalNodes>
            0 -1 1118 7.2696985444054008e-04</internalNodes>
          <leafValues>
            6.9279819726943970e-02 -3.6002197861671448e-01</leafValues></_>
        <_>
          <internalNodes>
            0 -1 375 -8.8749900460243225e-03</internalNodes>
          <leafValues>
            -6.9317096471786499e-01 7.2545744478702545e-02</leafValues></_>
        <_>
          <internalNodes>
            0 -1 53 -9.5157334581017494e-03</internalNodes>
          <leafValues>
            2.9974824190139771e-01 -1.4386288821697235e-01</leafValues></_>
        <_>
          <internalNodes>
            0 -1 62 7.5593739748001099e-03</internalNodes>
          <leafValues>
            -4.2549505829811096e-02 6.2105512619018555e-01</leafValues></_>
        <_>
          <internalNodes>
            0 -1 35 -9.4169378280639648e-02</internalNodes>
          <leafValues>
            6.4504259824752808e-01 -6.3958607614040375e-02</leafValues></_>
        <_>
          <internalNodes>
            0 -1 1033 5.2954502403736115e-02</internalNodes>
          <leafValues>
            -4.3272998183965683e-02 7.9434001445770264e-01</leafValues></_>
        <_>
          <internalNodes>
            0 -1 474 6.0445610433816910e-03</internalNodes>
          <leafValues>
            6.2831752002239227e-02 -6.5600883960723877e-01</leafValues></_>
        <_>
          <internalNodes>
            0 -1 593 -3.5221448633819818e-03</internalNodes>
          <leafValues>
            3.7100097537040710e-01 -9.5274448394775391e-02</leafValues></_>
        <_>
          <internalNodes>
            0 -1 593 4.1923923417925835e-03</internalNodes>
          <leafValues>
            -8.7437406182289124e-02 5.0756591558456421e-01</leafValues></_>
        <_>
          <internalNodes>
            0 -1 1075 -2.1789423190057278e-03</internalNodes>
          <leafValues>
            -3.4316712617874146e-01 1.1697019636631012e-01</leafValues></_>
        <_>
          <internalNodes>
            0 -1 1132 1.3635842129588127e-02</internalNodes>
          <leafValues>
            -7.2491675615310669e-02 5.3883832693099976e-01</leafValues></_>
        <_>
          <internalNodes>
            0 -1 195 4.4238083064556122e-03</internalNodes>
          <leafValues>
            9.3688175082206726e-02 -3.9467033743858337e-01</leafValues></_>
        <_>
          <internalNodes>
            0 -1 378 1.8342852592468262e-02</internalNodes>
          <leafValues>
            -8.5262335836887360e-02 4.1451877355575562e-01</leafValues></_>
        <_>
          <internalNodes>
            0 -1 157 8.1273391842842102e-02</internalNodes>
          <leafValues>
            5.2022874355316162e-02 -7.3504912853240967e-01</leafValues></_>
        <_>
          <internalNodes>
            0 -1 988 1.3111128937453032e-03</internalNodes>
          <leafValues>
            7.4000626802444458e-02 -4.1200727224349976e-01</leafValues></_>
        <_>
          <internalNodes>
            0 -1 264 7.8474786132574081e-03</internalNodes>
          <leafValues>
            1.0324710607528687e-01 -3.4189939498901367e-01</leafValues></_>
        <_>
          <internalNodes>
            0 -1 1093 1.7543527064844966e-03</internalNodes>
          <leafValues>
            -1.1001621931791306e-01 3.0896458029747009e-01</leafValues></_>
        <_>
          <internalNodes>
            0 -1 120 9.3171803746372461e-04</internalNodes>
          <leafValues>
            1.1410425603389740e-01 -2.9853349924087524e-01</leafValues></_>
        <_>
          <internalNodes>
            0 -1 819 2.1944902837276459e-03</internalNodes>
          <leafValues>
            9.3824483454227448e-02 -3.6351346969604492e-01</leafValues></_>
        <_>
          <internalNodes>
            0 -1 275 5.7155025005340576e-01</internalNodes>
          <leafValues>
            5.0063509494066238e-02 -6.9618564844131470e-01</leafValues></_>
        <_>
          <internalNodes>
            0 -1 177 -1.2205988168716431e-03</internalNodes>
          <leafValues>
            -4.4916090369224548e-01 7.4413001537322998e-02</leafValues></_>
        <_>
          <internalNodes>
            0 -1 740 -3.3497828990221024e-03</internalNodes>
          <leafValues>
            -4.0842056274414063e-01 8.9705832302570343e-02</leafValues></_>
        <_>
          <internalNodes>
            0 -1 1143 4.5264215441420674e-04</internalNodes>
          <leafValues>
            1.2053270637989044e-01 -2.7071928977966309e-01</leafValues></_>
        <_>
          <internalNodes>
            0 -1 697 6.7936209961771965e-03</internalNodes>
          <leafValues>
            6.2153991311788559e-02 -5.0377583503723145e-01</leafValues></_>
        <_>
          <internalNodes>
            0 -1 405 -7.0410347543656826e-03</internalNodes>
          <leafValues>
            2.1087560057640076e-01 -1.7093259096145630e-01</leafValues></_>
        <_>
          <internalNodes>
            0 -1 333 -5.1135927438735962e-02</internalNodes>
          <leafValues>
            3.6586821079254150e-01 -9.8181635141372681e-02</leafValues></_>
        <_>
          <internalNodes>
            0 -1 488 -1.5428979881107807e-02</internalNodes>
          <leafValues>
            4.5356550812721252e-01 -7.0693507790565491e-02</leafValues></_>
        <_>
          <internalNodes>
            0 -1 437 -7.3257288895547390e-03</internalNodes>
          <leafValues>
            3.2073026895523071e-01 -1.0555195808410645e-01</leafValues></_>
        <_>
          <internalNodes>
            0 -1 1111 -1.6520493663847446e-03</internalNodes>
          <leafValues>
            -3.7875396013259888e-01 9.3568325042724609e-02</leafValues></_>
        <_>
          <internalNodes>
            0 -1 180 7.0306402631103992e-04</internalNodes>
          <leafValues>
            1.2411413341760635e-01 -2.6827293634414673e-01</leafValues></_>
        <_>
          <internalNodes>
            0 -1 672 2.9378674924373627e-02</internalNodes>
          <leafValues>
            -4.5951277017593384e-02 7.9862082004547119e-01</leafValues></_>
        <_>
          <internalNodes>
            0 -1 474 -2.6298179291188717e-03</internalNodes>
          <leafValues>
            -3.7118557095527649e-01 9.4747118651866913e-02</leafValues></_>
        <_>
          <internalNodes>
            0 -1 29 1.6376942396163940e-02</internalNodes>
          <leafValues>
            6.6986382007598877e-02 -4.3223893642425537e-01</leafValues></_>
        <_>
          <internalNodes>
            0 -1 44 -4.8816546797752380e-02</internalNodes>
          <leafValues>
            -4.1753059625625610e-01 7.5208522379398346e-02</leafValues></_></weakClassifiers></_>
    <!-- stage 5 -->
    <_>
      <maxWeakCount>20</maxWeakCount>
      <stageThreshold>-1.0970071554183960e+00</stageThreshold>
      <weakClassifiers>
        <_>
          <internalNodes>
            0 -1 262 -2.2216174329514615e-05</internalNodes>
          <leafValues>
            4.1457286477088928e-01 -3.7749287486076355e-01</leafValues></_>
        <_>
          <internalNodes>
            0 -1 262 2.9581333365058526e-05</internalNodes>
          <leafValues>
            -3.3817741274833679e-01 4.7447907924652100e-01</leafValues></_>
        <_>
          <internalNodes>
            0 -1 327 -1.7536111045046709e-05</internalNodes>
          <leafValues>
            3.4677442908287048e-01 -2.5315895676612854e-01</leafValues></_>
        <_>
          <internalNodes>
            0 -1 553 -3.5440694773569703e-04</internalNodes>
          <leafValues>
            3.1547293066978455e-01 -2.2203832864761353e-01</leafValues></_>
        <_>
          <internalNodes>
            0 -1 642 -4.8038485692813993e-04</internalNodes>
          <leafValues>
            4.0956762433052063e-01 -1.6458828747272491e-01</leafValues></_>
        <_>
          <internalNodes>
            0 -1 169 2.1975669369567186e-05</internalNodes>
          <leafValues>
            -1.8659707903862000e-01 2.9661560058593750e-01</leafValues></_>
        <_>
          <internalNodes>
            0 -1 609 -6.9872746244072914e-03</internalNodes>
          <leafValues>
            4.4774141907691956e-01 -1.2841306626796722e-01</leafValues></_>
        <_>
          <internalNodes>
            0 -1 613 -1.2543417513370514e-02</internalNodes>
          <leafValues>
            5.6505763530731201e-01 -9.2760890722274780e-02</leafValues></_>
        <_>
          <internalNodes>
            0 -1 1024 -9.1203616466373205e-04</internalNodes>
          <leafValues>
            4.2800918221473694e-01 -1.2313789874315262e-01</leafValues></_>
        <_>
          <internalNodes>
            0 -1 850 -8.9243857655674219e-04</internalNodes>
          <leafValues>
            4.1566872596740723e-01 -1.1999819427728653e-01</leafValues></_>
        <_>
          <internalNodes>
            0 -1 280 8.3457902073860168e-02</internalNodes>
          <leafValues>
            -5.2211433649063110e-02 5.6962007284164429e-01</leafValues></_>
        <_>
          <internalNodes>
            0 -1 344 -2.0865803584456444e-02</internalNodes>
          <leafValues>
            3.0131158232688904e-01 -2.1163959801197052e-01</leafValues></_>
        <_>
          <internalNodes>
            0 -1 346 1.2354741338640451e-03</internalNodes>
          <leafValues>
            -8.5990652441978455e-02 4.5889312028884888e-01</leafValues></_>
        <_>
          <internalNodes>
            0 -1 388 -7.3802587576210499e-03</internalNodes>
          <leafValues>
            4.3069702386856079e-01 -9.9211178719997406e-02</leafValues></_>
        <_>
          <internalNodes>
            0 -1 512 -3.9958521723747253e-02</internalNodes>
          <leafValues>
            -7.1305233240127563e-01 6.5706692636013031e-02</leafValues></_>
        <_>
          <internalNodes>
            0 -1 757 6.2077835900709033e-04</internalNodes>
          <leafValues>
            -1.4211688935756683e-01 3.1105631589889526e-01</leafValues></_>
        <_>
          <internalNodes>
            0 -1 303 5.2890554070472717e-02</internalNodes>
          <leafValues>
            5.9283468872308731e-02 -7.8186684846878052e-01</leafValues></_>
        <_>
          <internalNodes>
            0 -1 496 -3.7490829825401306e-02</internalNodes>
          <leafValues>
            -5.1509726047515869e-01 7.0035338401794434e-02</leafValues></_>
        <_>
          <internalNodes>
            0 -1 960 -7.2259470820426941e-02</internalNodes>
          <leafValues>
            3.6221793293952942e-01 -1.1352334916591644e-01</leafValues></_>
        <_>
          <internalNodes>
            0 -1 397 -3.0790233612060547e-01</internalNodes>
          <leafValues>
            5.9414994716644287e-01 -8.4612175822257996e-02</leafValues></_></weakClassifiers></_>
    <!-- stage 6 -->
    <_>
      <maxWeakCount>48</maxWeakCount>
      <stageThreshold>-9.7274875640869141e-01</stageThreshold>
      <weakClassifiers>
        <_>
          <internalNodes>
            0 -1 526 -9.6231907606124878e-02</internalNodes>
          <leafValues>
            3.7500000000000000e-01 -1.8449781835079193e-01</leafValues></_>
        <_>
          <internalNodes>
            0 -1 331 1.4838531613349915e-01</internalNodes>
          <leafValues>
            7.8417278826236725e-02 -5.4498231410980225e-01</leafValues></_>
        <_>
          <internalNodes>
            0 -1 456 -6.6078722476959229e-02</internalNodes>
          <leafValues>
            -6.5494942665100098e-01 1.0873898118734360e-01</leafValues></_>
        <_>
          <internalNodes>
            0 -1 816 -2.9734887182712555e-02</internalNodes>
          <leafValues>
            -7.1917957067489624e-01 2.6172367855906487e-02</leafValues></_>
        <_>
          <internalNodes>
            0 -1 508 -7.9228909453377128e-04</internalNodes>
          <leafValues>
            3.1237250566482544e-01 -1.2973046302795410e-01</leafValues></_>
        <_>
          <internalNodes>
            0 -1 589 3.6618567537516356e-03</internalNodes>
          <leafValues>
            -1.2866924703121185e-01 3.3601918816566467e-01</leafValues></_>
        <_>
          <internalNodes>
            0 -1 1123 -4.9230025615543127e-04</internalNodes>
          <leafValues>
            -2.8771892189979553e-01 1.4821009337902069e-01</leafValues></_>
        <_>
          <internalNodes>
            0 -1 1121 1.3882629573345184e-03</internalNodes>
          <leafValues>
            7.0177629590034485e-02 -3.9400631189346313e-01</leafValues></_>
        <_>
          <internalNodes>
            0 -1 514 -5.6246640160679817e-03</internalNodes>
          <leafValues>
            3.5574501752853394e-01 -1.0262054949998856e-01</leafValues></_>
        <_>
          <internalNodes>
            0 -1 429 -1.9174862653017044e-02</internalNodes>
          <leafValues>
            -9.0157449245452881e-01 2.7909662574529648e-02</leafValues></_>
        <_>
          <internalNodes>
            0 -1 207 -2.9625207185745239e-01</internalNodes>
          <leafValues>
            6.6085129976272583e-01 -4.5578852295875549e-02</leafValues></_>
        <_>
          <internalNodes>
            0 -1 723 9.5803587464615703e-04</internalNodes>
          <leafValues>
            -1.0007121413946152e-01 3.1452044844627380e-01</leafValues></_>
        <_>
          <internalNodes>
            0 -1 684 -2.9060775414109230e-02</internalNodes>
          <leafValues>
            6.0205715894699097e-01 -5.3950119763612747e-02</leafValues></_>
        <_>
          <internalNodes>
            0 -1 538 3.3807802945375443e-02</internalNodes>
          <leafValues>
            -1.0997782647609711e-01 3.3601450920104980e-01</leafValues></_>
        <_>
          <internalNodes>
            0 -1 698 -3.0389986932277679e-02</internalNodes>
          <leafValues>
            -9.2717307806015015e-01 4.4414360076189041e-02</leafValues></_>
        <_>
          <internalNodes>
            0 -1 944 6.3284784555435181e-03</internalNodes>
          <leafValues>
            -1.3643683493137360e-01 2.6125711202621460e-01</leafValues></_>
        <_>
          <internalNodes>
            0 -1 756 -3.8203470408916473e-02</internalNodes>
          <leafValues>
            3.7647345662117004e-01 -7.5733184814453125e-02</leafValues></_>
        <_>
          <internalNodes>
            0 -1 845 -1.2327537406235933e-03</internalNodes>
          <leafValues>
            2.3913674056529999e-01 -1.3503679633140564e-01</leafValues></_>
        <_>
          <internalNodes>
            0 -1 988 -9.6309522632509470e-04</internalNodes>
          <leafValues>
            -3.1539139151573181e-01 1.0061821341514587e-01</leafValues></_>
        <_>
          <internalNodes>
            0 -1 1066 -1.2038074433803558e-02</internalNodes>
          <leafValues>
            4.4990915060043335e-01 -7.3122330009937286e-02</leafValues></_>
        <_>
          <internalNodes>
            0 -1 919 -1.0159634053707123e-02</internalNodes>
          <leafValues>
            -4.3159833550453186e-01 8.1444621086120605e-02</leafValues></_>
        <_>
          <internalNodes>
            0 -1 844 2.9046558775007725e-03</internalNodes>
          <leafValues>
            -9.5577649772167206e-02 3.1775316596031189e-01</leafValues></_>
        <_>
          <internalNodes>
            0 -1 6 2.6034475304186344e-03</internalNodes>
          <leafValues>
            1.1488624662160873e-01 -2.6191300153732300e-01</leafValues></_>
        <_>
          <internalNodes>
            0 -1 432 8.3612063899636269e-03</internalNodes>
          <leafValues>
            -1.2679131329059601e-01 2.8756761550903320e-01</leafValues></_>
        <_>
          <internalNodes>
            0 -1 311 -1.4227313920855522e-02</internalNodes>
          <leafValues>
            4.2198276519775391e-01 -8.2676872611045837e-02</leafValues></_>
        <_>
          <internalNodes>
            0 -1 185 -5.3114821203052998e-03</internalNodes>
          <leafValues>
            -3.2139536738395691e-01 1.0335755348205566e-01</leafValues></_>
        <_>
          <internalNodes>
            0 -1 379 9.4261076301336288e-03</internalNodes>
          <leafValues>
            5.4814126342535019e-02 -5.6551080942153931e-01</leafValues></_>
        <_>
          <internalNodes>
            0 -1 369 -3.7430748343467712e-02</internalNodes>
          <leafValues>
            4.5763027667999268e-01 -8.9993081986904144e-02</leafValues></_>
        <_>
          <internalNodes>
            0 -1 832 -4.5994319021701813e-02</internalNodes>
          <leafValues>
            -7.4666452407836914e-01 4.9536284059286118e-02</leafValues></_>
        <_>
          <internalNodes>
            0 -1 720 5.7958319783210754e-02</internalNodes>
          <leafValues>
            5.3695153445005417e-02 -5.0015276670455933e-01</leafValues></_>
        <_>
          <internalNodes>
            0 -1 599 -1.4650477096438408e-02</internalNodes>
          <leafValues>
            -3.4624519944190979e-01 1.0379551351070404e-01</leafValues></_>
        <_>
          <internalNodes>
            0 -1 856 1.4456014335155487e-01</internalNodes>
          <leafValues>
            -6.8183593451976776e-02 5.1380115747451782e-01</leafValues></_>
        <_>
          <internalNodes>
            0 -1 58 -6.7296177148818970e-02</internalNodes>
          <leafValues>
            -4.6907562017440796e-01 7.9532638192176819e-02</leafValues></_>
        <_>
          <internalNodes>
            0 -1 761 5.1032016053795815e-03</internalNodes>
          <leafValues>
            4.8886347562074661e-02 -5.6999534368515015e-01</leafValues></_>
        <_>
          <internalNodes>
            0 -1 1084 -2.6146313175559044e-03</internalNodes>
          <leafValues>
            3.3077484369277954e-01 -1.0342941433191299e-01</leafValues></_>
        <_>
          <internalNodes>
            0 -1 891 -8.8739860802888870e-04</internalNodes>
          <leafValues>
            2.4051779508590698e-01 -1.2364943325519562e-01</leafValues></_>
        <_>
          <internalNodes>
            0 -1 890 9.6854520961642265e-04</internalNodes>
          <leafValues>
            -1.1534406989812851e-01 2.6920226216316223e-01</leafValues></_>
        <_>
          <internalNodes>
            0 -1 633 7.7663408592343330e-03</internalNodes>
          <leafValues>
            5.1577609032392502e-02 -6.2126237154006958e-01</leafValues></_>
        <_>
          <internalNodes>
            0 -1 574 1.9975821487605572e-03</internalNodes>
          <leafValues>
            -1.2193132191896439e-01 2.5715467333793640e-01</leafValues></_>
        <_>
          <internalNodes>
            0 -1 579 -8.0363417509943247e-04</internalNodes>
          <leafValues>
            3.2438477873802185e-01 -1.1908360570669174e-01</leafValues></_>
        <_>
          <internalNodes>
            0 -1 572 -3.5630264319479465e-03</internalNodes>
          <leafValues>
            -4.8011025786399841e-01 7.4119046330451965e-02</leafValues></_>
        <_>
          <internalNodes>
            0 -1 679 -1.3690700754523277e-02</internalNodes>
          <leafValues>
            4.8958036303520203e-01 -6.8183995783329010e-02</leafValues></_>
        <_>
          <internalNodes>
            0 -1 1116 -3.5077445209026337e-03</internalNodes>
          <leafValues>
            -4.5560792088508606e-01 7.6605401933193207e-02</leafValues></_>
        <_>
          <internalNodes>
            0 -1 1015 9.4615519046783447e-03</internalNodes>
          <leafValues>
            -1.1294370144605637e-01 2.8965026140213013e-01</leafValues></_>
        <_>
          <internalNodes>
            0 -1 846 1.3784998096525669e-02</internalNodes>
          <leafValues>
            -1.3067267835140228e-01 2.2656117379665375e-01</leafValues></_>
        <_>
          <internalNodes>
            0 -1 953 3.5898685455322266e-02</internalNodes>
          <leafValues>
            -8.3256103098392487e-02 4.2780268192291260e-01</leafValues></_>
        <_>
          <internalNodes>
            0 -1 661 1.1887261644005775e-03</internalNodes>
          <leafValues>
            -1.0804817080497742e-01 2.8974992036819458e-01</leafValues></_>
        <_>
          <internalNodes>
            0 -1 506 -4.1560670360922813e-03</internalNodes>
          <leafValues>
            2.9040282964706421e-01 -1.3250596821308136e-01</leafValues></_></weakClassifiers></_>
    <!-- stage 7 -->
    <_>
      <maxWeakCount>47</maxWeakCount>
      <stageThreshold>-9.5735067129135132e-01</stageThreshold>
      <weakClassifiers>
        <_>
          <internalNodes>
            0 -1 193 3.9964315295219421e-01</internalNodes>
          <leafValues>
            -1.8126273155212402e-01 6.6101694107055664e-01</leafValues></_>
        <_>
          <internalNodes>
            0 -1 122 -1.9968277215957642e-01</internalNodes>
          <leafValues>
            5.5454039573669434e-01 -1.6209262609481812e-01</leafValues></_>
        <_>
          <internalNodes>
            0 -1 424 7.6502691954374313e-03</internalNodes>
          <leafValues>
            1.3630643486976624e-01 -5.1217848062515259e-01</leafValues></_>
        <_>
          <internalNodes>
            0 -1 969 -7.2736091911792755e-02</internalNodes>
          <leafValues>
            4.3570289015769958e-01 -6.5490275621414185e-02</leafValues></_>
        <_>
          <internalNodes>
            0 -1 1035 2.3162220604717731e-03</internalNodes>
          <leafValues>
            3.6772541701793671e-02 -4.2088034749031067e-01</leafValues></_>
        <_>
          <internalNodes>
            0 -1 1152 -1.9530956633388996e-03</internalNodes>
          <leafValues>
            -3.3585807681083679e-01 1.3229526579380035e-01</leafValues></_>
        <_>
          <internalNodes>
            0 -1 312 -1.6197647899389267e-02</internalNodes>
          <leafValues>
            -5.7371109724044800e-01 4.9334008246660233e-02</leafValues></_>
        <_>
          <internalNodes>
            0 -1 11 -3.7440088391304016e-01</internalNodes>
          <leafValues>
            5.8773291110992432e-01 -5.0005655735731125e-02</leafValues></_>
        <_>
          <internalNodes>
            0 -1 754 8.3693921566009521e-02</internalNodes>
          <leafValues>
            -6.9130860269069672e-02 5.0298142433166504e-01</leafValues></_>
        <_>
          <internalNodes>
            0 -1 755 -1.5502233803272247e-01</internalNodes>
          <leafValues>
            3.6174282431602478e-01 -9.3366004526615143e-02</leafValues></_>
        <_>
          <internalNodes>
            0 -1 334 1.3789325952529907e-01</internalNodes>
          <leafValues>
            -5.9555768966674805e-02 5.4550290107727051e-01</leafValues></_>
        <_>
          <internalNodes>
            0 -1 282 1.5254572033882141e-01</internalNodes>
          <leafValues>
            -7.2866648435592651e-02 4.7823816537857056e-01</leafValues></_>
        <_>
          <internalNodes>
            0 -1 58 7.1300871670246124e-02</internalNodes>
          <leafValues>
            9.9987402558326721e-02 -4.2075523734092712e-01</leafValues></_>
        <_>
          <internalNodes>
            0 -1 242 -9.1294012963771820e-03</internalNodes>
          <leafValues>
            -5.7220023870468140e-01 4.8835486173629761e-02</leafValues></_>
        <_>
          <internalNodes>
            0 -1 484 2.4347901344299316e-02</internalNodes>
          <leafValues>
            -1.4825321733951569e-01 2.4031734466552734e-01</leafValues></_>
        <_>
          <internalNodes>
            0 -1 83 1.4498430537059903e-03</internalNodes>
          <leafValues>
            6.4732365310192108e-02 -4.5152023434638977e-01</leafValues></_>
        <_>
          <internalNodes>
            0 -1 421 4.1796743869781494e-02</internalNodes>
          <leafValues>
            8.0414645373821259e-02 -4.7173014283180237e-01</leafValues></_>
        <_>
          <internalNodes>
            0 -1 135 -9.2418938875198364e-03</internalNodes>
          <leafValues>
            4.0533280372619629e-01 -8.3117045462131500e-02</leafValues></_>
        <_>
          <internalNodes>
            0 -1 125 1.3865418732166290e-02</internalNodes>
          <leafValues>
            -8.6976356804370880e-02 4.8087531328201294e-01</leafValues></_>
        <_>
          <internalNodes>
            0 -1 293 -1.5369290113449097e-01</internalNodes>
          <leafValues>
            -5.2705156803131104e-01 5.3905688226222992e-02</leafValues></_>
        <_>
          <internalNodes>
            0 -1 120 -4.8517988761886954e-04</internalNodes>
          <leafValues>
            -2.5493875145912170e-01 1.2871234118938446e-01</leafValues></_>
        <_>
          <internalNodes>
            0 -1 118 9.6776010468602180e-04</internalNodes>
          <leafValues>
            8.9157186448574066e-02 -3.7424907088279724e-01</leafValues></_>
        <_>
          <internalNodes>
            0 -1 1070 -6.7012831568717957e-03</internalNodes>
          <leafValues>
            -4.9868226051330566e-01 5.6553300470113754e-02</leafValues></_>
        <_>
          <internalNodes>
            0 -1 1120 -3.1362334266304970e-04</internalNodes>
          <leafValues>
            -1.8672281503677368e-01 1.5566726028919220e-01</leafValues></_>
        <_>
          <internalNodes>
            0 -1 601 -5.9540942311286926e-02</internalNodes>
          <leafValues>
            3.2338473200798035e-01 -8.9882783591747284e-02</leafValues></_>
        <_>
          <internalNodes>
            0 -1 1062 1.2441376224160194e-02</internalNodes>
          <leafValues>
            -8.5772253572940826e-02 3.7089899182319641e-01</leafValues></_>
        <_>
          <internalNodes>
            0 -1 1074 -3.0039933044463396e-03</internalNodes>
          <leafValues>
            -4.3977203965187073e-01 7.0773988962173462e-02</leafValues></_>
        <_>
          <internalNodes>
            0 -1 525 5.6499801576137543e-02</internalNodes>
          <leafValues>
            -6.4155176281929016e-02 4.7752800583839417e-01</leafValues></_>
        <_>
          <internalNodes>
            0 -1 741 1.9937055185437202e-03</internalNodes>
          <leafValues>
            6.6179953515529633e-02 -4.8782148957252502e-01</leafValues></_>
        <_>
          <internalNodes>
            0 -1 727 1.3403818011283875e-03</internalNodes>
          <leafValues>
            -1.4117583632469177e-01 2.2194385528564453e-01</leafValues></_>
        <_>
          <internalNodes>
            0 -1 665 -1.8549215048551559e-02</internalNodes>
          <leafValues>
            -6.6417646408081055e-01 5.1264155656099319e-02</leafValues></_>
        <_>
          <internalNodes>
            0 -1 391 6.9380039349198341e-03</internalNodes>
          <leafValues>
            6.7893408238887787e-02 -4.4567784667015076e-01</leafValues></_>
        <_>
          <internalNodes>
            0 -1 173 3.9983883500099182e-02</internalNodes>
          <leafValues>
            -5.8991197496652603e-02 5.7632249593734741e-01</leafValues></_>
        <_>
          <internalNodes>
            0 -1 351 -3.6431695334613323e-03</internalNodes>
          <leafValues>
            1.9180394709110260e-01 -1.5638583898544312e-01</leafValues></_>
        <_>
          <internalNodes>
            0 -1 468 1.6496020555496216e-01</internalNodes>
          <leafValues>
            -5.3980048745870590e-02 6.4468669891357422e-01</leafValues></_>
        <_>
          <internalNodes>
            0 -1 81 2.0937025547027588e-02</internalNodes>
          <leafValues>
            5.1760941743850708e-02 -6.8155699968338013e-01</leafValues></_>
        <_>
          <internalNodes>
            0 -1 1093 1.8657897599041462e-03</internalNodes>
          <leafValues>
            -1.0325446724891663e-01 2.7782583236694336e-01</leafValues></_>
        <_>
          <internalNodes>
            0 -1 1093 -3.4223957918584347e-03</internalNodes>
          <leafValues>
            4.3443459272384644e-01 -6.9171480834484100e-02</leafValues></_>
        <_>
          <internalNodes>
            0 -1 904 -2.3579727858304977e-03</internalNodes>
          <leafValues>
            -2.9508602619171143e-01 1.0516688972711563e-01</leafValues></_>
        <_>
          <internalNodes>
            0 -1 1055 -7.8753642737865448e-03</internalNodes>
          <leafValues>
            3.1771653890609741e-01 -9.4877585768699646e-02</leafValues></_>
        <_>
          <internalNodes>
            0 -1 1004 2.1642904728651047e-02</internalNodes>
          <leafValues>
            4.2854990810155869e-02 -7.2884261608123779e-01</leafValues></_>
        <_>
          <internalNodes>
            0 -1 142 -9.1666907072067261e-02</internalNodes>
          <leafValues>
            -6.4501750469207764e-01 3.4259267151355743e-02</leafValues></_>
        <_>
          <internalNodes>
            0 -1 261 -1.5982252079993486e-03</internalNodes>
          <leafValues>
            -2.6819810271263123e-01 9.6550174057483673e-02</leafValues></_>
        <_>
          <internalNodes>
            0 -1 734 -3.3570590894669294e-03</internalNodes>
          <leafValues>
            3.2586649060249329e-01 -8.6363442242145538e-02</leafValues></_>
        <_>
          <internalNodes>
            0 -1 840 -2.7407649904489517e-03</internalNodes>
          <leafValues>
            2.6187276840209961e-01 -1.0629579424858093e-01</leafValues></_>
        <_>
          <internalNodes>
            0 -1 812 4.4814914464950562e-02</internalNodes>
          <leafValues>
            4.8117466270923615e-02 -6.0242044925689697e-01</leafValues></_>
        <_>
          <internalNodes>
            0 -1 359 -3.6087012849748135e-03</internalNodes>
          <leafValues>
            -5.7640552520751953e-01 4.4578492641448975e-02</leafValues></_></weakClassifiers></_>
    <!-- stage 8 -->
    <_>
      <maxWeakCount>60</maxWeakCount>
      <stageThreshold>-8.2203835248947144e-01</stageThreshold>
      <weakClassifiers>
        <_>
          <internalNodes>
            0 -1 192 -1.7811468243598938e-01</internalNodes>
          <leafValues>
            -4.5969498157501221e-01 6.3182078301906586e-03</leafValues></_>
        <_>
          <internalNodes>
            0 -1 1042 -2.6111042127013206e-02</internalNodes>
          <leafValues>
            2.8233736753463745e-01 -1.1941480636596680e-01</leafValues></_>
        <_>
          <internalNodes>
            0 -1 975 -9.9755600094795227e-03</internalNodes>
          <leafValues>
            3.1177422404289246e-01 -9.3498133122920990e-02</leafValues></_>
        <_>
          <internalNodes>
            0 -1 47 2.3666912689805031e-02</internalNodes>
          <leafValues>
            -1.1085934937000275e-01 2.5325012207031250e-01</leafValues></_>
        <_>
          <internalNodes>
            0 -1 64 -8.9181885123252869e-03</internalNodes>
          <leafValues>
            4.3138796091079712e-01 -7.0241808891296387e-02</leafValues></_>
        <_>
          <internalNodes>
            0 -1 74 6.2266830354928970e-03</internalNodes>
          <leafValues>
            -1.2212883681058884e-01 3.1214377284049988e-01</leafValues></_>
        <_>
          <internalNodes>
            0 -1 777 -5.1603442989289761e-03</internalNodes>
          <leafValues>
            3.1606358289718628e-01 -9.2233180999755859e-02</leafValues></_>
        <_>
          <internalNodes>
            0 -1 1143 -5.6385516654700041e-04</internalNodes>
          <leafValues>
            -2.6871168613433838e-01 1.2521372735500336e-01</leafValues></_>
        <_>
          <internalNodes>
            0 -1 629 -1.3914794661104679e-02</internalNodes>
          <leafValues>
            4.3918713927268982e-01 -6.1155885457992554e-02</leafValues></_>
        <_>
          <internalNodes>
            0 -1 213 6.3890695571899414e-02</internalNodes>
          <leafValues>
            -7.3136411607265472e-02 4.2349961400032043e-01</leafValues></_>
        <_>
          <internalNodes>
            0 -1 494 -4.8859007656574249e-03</internalNodes>
          <leafValues>
            2.3750467598438263e-01 -1.2772564589977264e-01</leafValues></_>
        <_>
          <internalNodes>
            0 -1 714 -1.8873114138841629e-02</internalNodes>
          <leafValues>
            -5.3953510522842407e-01 6.4257770776748657e-02</leafValues></_>
        <_>
          <internalNodes>
            0 -1 1063 4.3371468782424927e-02</internalNodes>
          <leafValues>
            -8.3631299436092377e-02 3.4330949187278748e-01</leafValues></_>
        <_>
          <internalNodes>
            0 -1 715 8.9559853076934814e-03</internalNodes>
          <leafValues>
            -7.7300667762756348e-02 3.4101516008377075e-01</leafValues></_>
        <_>
          <internalNodes>
            0 -1 107 -5.8709684526547790e-04</internalNodes>
          <leafValues>
            -2.3226340115070343e-01 1.3140718638896942e-01</leafValues></_>
        <_>
          <internalNodes>
            0 -1 1019 -1.2560172937810421e-02</internalNodes>
          <leafValues>
            3.0269262194633484e-01 -8.5945345461368561e-02</leafValues></_>
        <_>
          <internalNodes>
            0 -1 1073 -2.0340136252343655e-03</internalNodes>
          <leafValues>
            -2.8633570671081543e-01 9.6072793006896973e-02</leafValues></_>
        <_>
          <internalNodes>
            0 -1 159 -1.2807843741029501e-03</internalNodes>
          <leafValues>
            2.4090276658535004e-01 -1.0506179928779602e-01</leafValues></_>
        <_>
          <internalNodes>
            0 -1 277 4.1050937026739120e-02</internalNodes>
          <leafValues>
            -5.1866151392459869e-02 5.5355674028396606e-01</leafValues></_>
        <_>
          <internalNodes>
            0 -1 340 1.3300120830535889e-01</internalNodes>
          <leafValues>
            4.4363368302583694e-02 -5.9203040599822998e-01</leafValues></_>
        <_>
          <internalNodes>
            0 -1 1048 -2.1239111665636301e-03</internalNodes>
          <leafValues>
            2.2285954654216766e-01 -1.1467827111482620e-01</leafValues></_>
        <_>
          <internalNodes>
            0 -1 1040 4.8735588788986206e-03</internalNodes>
          <leafValues>
            -1.3180497288703918e-01 2.8961369395256042e-01</leafValues></_>
        <_>
          <internalNodes>
            0 -1 616 2.2567652631551027e-03</internalNodes>
          <leafValues>
            9.0129844844341278e-02 -3.2708951830863953e-01</leafValues></_>
        <_>
          <internalNodes>
            0 -1 469 -1.0709976777434349e-03</internalNodes>
          <leafValues>
            3.3570852875709534e-01 -8.8446207344532013e-02</leafValues></_>
        <_>
          <internalNodes>
            0 -1 857 -1.3184611685574055e-02</internalNodes>
          <leafValues>
            -5.3751671314239502e-01 5.2115608006715775e-02</leafValues></_>
        <_>
          <internalNodes>
            0 -1 534 -1.2036634143441916e-03</internalNodes>
          <leafValues>
            -3.1456980109214783e-01 7.1296937763690948e-02</leafValues></_>
        <_>
          <internalNodes>
            0 -1 1087 6.1840629205107689e-03</internalNodes>
          <leafValues>
            -8.9276805520057678e-02 2.8551220893859863e-01</leafValues></_>
        <_>
          <internalNodes>
            0 -1 818 -2.0112946003791876e-05</internalNodes>
          <leafValues>
            1.7367231845855713e-01 -1.4870554208755493e-01</leafValues></_>
        <_>
          <internalNodes>
            0 -1 752 -2.4567548185586929e-02</internalNodes>
          <leafValues>
            -7.8619575500488281e-01 3.1211985275149345e-02</leafValues></_>
        <_>
          <internalNodes>
            0 -1 779 -4.0344685316085815e-02</internalNodes>
          <leafValues>
            -4.3291154503822327e-01 4.9189001321792603e-02</leafValues></_>
        <_>
          <internalNodes>
            0 -1 731 7.8685261309146881e-02</internalNodes>
          <leafValues>
            4.2399305850267410e-02 -5.3711843490600586e-01</leafValues></_>
        <_>
          <internalNodes>
            0 -1 440 9.6194696379825473e-04</internalNodes>
          <leafValues>
            -9.5159590244293213e-02 2.4988052248954773e-01</leafValues></_>
        <_>
          <internalNodes>
            0 -1 14 -3.8948664441704750e-03</internalNodes>
          <leafValues>
            -3.3730682730674744e-01 7.3632851243019104e-02</leafValues></_>
        <_>
          <internalNodes>
            0 -1 15 2.2624187171459198e-02</internalNodes>
          <leafValues>
            2.9276397079229355e-02 -8.0859982967376709e-01</leafValues></_>
        <_>
          <internalNodes>
            0 -1 493 -1.0993844829499722e-02</internalNodes>
          <leafValues>
            4.3272209167480469e-01 -6.1666633933782578e-02</leafValues></_>
        <_>
          <internalNodes>
            0 -1 310 5.4877772927284241e-03</internalNodes>
          <leafValues>
            8.6236946284770966e-02 -3.2174789905548096e-01</leafValues></_>
        <_>
          <internalNodes>
            0 -1 586 1.3496554456651211e-03</internalNodes>
          <leafValues>
            -7.5898528099060059e-02 3.0855166912078857e-01</leafValues></_>
        <_>
          <internalNodes>
            0 -1 1026 -2.0602215081453323e-03</internalNodes>
          <leafValues>
            -3.0773642659187317e-01 7.8041084110736847e-02</leafValues></_>
        <_>
          <internalNodes>
            0 -1 1099 -8.8677695021033287e-04</internalNodes>
          <leafValues>
            2.4459911882877350e-01 -1.0220251232385635e-01</leafValues></_>
        <_>
          <internalNodes>
            0 -1 1046 -7.4216602370142937e-03</internalNodes>
          <leafValues>
            -4.5937409996986389e-01 5.5687751621007919e-02</leafValues></_>
        <_>
          <internalNodes>
            0 -1 908 2.5030942633748055e-03</internalNodes>
          <leafValues>
            -8.6693704128265381e-02 2.8713974356651306e-01</leafValues></_>
        <_>
          <internalNodes>
            0 -1 330 1.0998275876045227e-01</internalNodes>
          <leafValues>
            3.5565603524446487e-02 -7.2297328710556030e-01</leafValues></_>
        <_>
          <internalNodes>
            0 -1 1153 -2.6639167219400406e-02</internalNodes>
          <leafValues>
            -5.1855349540710449e-01 3.9004653692245483e-02</leafValues></_>
        <_>
          <internalNodes>
            0 -1 1094 -3.7330616032704711e-04</internalNodes>
          <leafValues>
            2.0698580145835876e-01 -1.1961764842271805e-01</leafValues></_>
        <_>
          <internalNodes>
            0 -1 1138 1.9143247045576572e-03</internalNodes>
          <leafValues>
            1.1495485156774521e-01 -3.0417868494987488e-01</leafValues></_>
        <_>
          <internalNodes>
            0 -1 383 -2.9147164896130562e-02</internalNodes>
          <leafValues>
            3.2695999741554260e-01 -7.7227592468261719e-02</leafValues></_>
        <_>
          <internalNodes>
            0 -1 255 1.1876376345753670e-02</internalNodes>
          <leafValues>
            -1.5021003782749176e-01 1.6951172053813934e-01</leafValues></_>
        <_>
          <internalNodes>
            0 -1 849 2.1168512830627151e-05</internalNodes>
          <leafValues>
            -1.4808644354343414e-01 1.6402775049209595e-01</leafValues></_>
        <_>
          <internalNodes>
            0 -1 843 -6.9663446629419923e-04</internalNodes>
          <leafValues>
            2.5851160287857056e-01 -9.9338799715042114e-02</leafValues></_>
        <_>
          <internalNodes>
            0 -1 1145 -9.6719420980662107e-04</internalNodes>
          <leafValues>
            -2.6766011118888855e-01 9.7014889121055603e-02</leafValues></_>
        <_>
          <internalNodes>
            0 -1 1144 7.4860081076622009e-04</internalNodes>
          <leafValues>
            9.1046400368213654e-02 -2.9408031702041626e-01</leafValues></_>
        <_>
          <internalNodes>
            0 -1 743 -8.2395235076546669e-03</internalNodes>
          <leafValues>
            3.8950067758560181e-01 -7.3789678514003754e-02</leafValues></_>
        <_>
          <internalNodes>
            0 -1 25 1.3829504139721394e-02</internalNodes>
          <leafValues>
            -1.0763201862573624e-01 2.3748818039894104e-01</leafValues></_>
        <_>
          <internalNodes>
            0 -1 204 1.3963131234049797e-02</internalNodes>
          <leafValues>
            -1.0117728263139725e-01 2.9546886682510376e-01</leafValues></_>
        <_>
          <internalNodes>
            0 -1 1068 1.3767177239060402e-02</internalNodes>
          <leafValues>
            5.3737491369247437e-02 -4.9229913949966431e-01</leafValues></_>
        <_>
          <internalNodes>
            0 -1 1023 -9.3473419547080994e-03</internalNodes>
          <leafValues>
            3.8212829828262329e-01 -7.1778342127799988e-02</leafValues></_>
        <_>
          <internalNodes>
            0 -1 952 3.2640367746353149e-02</internalNodes>
          <leafValues>
            -6.6283322870731354e-02 4.3810117244720459e-01</leafValues></_>
        <_>
          <internalNodes>
            0 -1 284 1.4907206594944000e-01</internalNodes>
          <leafValues>
            -8.0223210155963898e-02 3.3348676562309265e-01</leafValues></_>
        <_>
          <internalNodes>
            0 -1 222 -1.1156078428030014e-02</internalNodes>
          <leafValues>
            4.6302622556686401e-01 -6.1341982334852219e-02</leafValues></_>
        <_>
          <internalNodes>
            0 -1 811 1.3912601396441460e-02</internalNodes>
          <leafValues>
            -3.8424957543611526e-02 6.3623034954071045e-01</leafValues></_></weakClassifiers></_>
    <!-- stage 9 -->
    <_>
      <maxWeakCount>62</maxWeakCount>
      <stageThreshold>-8.8537842035293579e-01</stageThreshold>
      <weakClassifiers>
        <_>
          <internalNodes>
            0 -1 996 7.1310594677925110e-02</internalNodes>
          <leafValues>
            -1.5117466449737549e-01 3.9669421315193176e-01</leafValues></_>
        <_>
          <internalNodes>
            0 -1 868 5.5837091058492661e-02</internalNodes>
          <leafValues>
            4.6812564134597778e-02 -6.8828302621841431e-01</leafValues></_>
        <_>
          <internalNodes>
            0 -1 611 -5.0246868282556534e-02</internalNodes>
          <leafValues>
            3.8854613900184631e-01 -6.2298148870468140e-02</leafValues></_>
        <_>
          <internalNodes>
            0 -1 300 -1.3276144862174988e-01</internalNodes>
          <leafValues>
            -8.3693367242813110e-01 2.5432767346501350e-02</leafValues></_>
        <_>
          <internalNodes>
            0 -1 561 3.5496801137924194e-02</internalNodes>
          <leafValues>
            4.4349435716867447e-02 -6.7482471466064453e-01</leafValues></_>
        <_>
          <internalNodes>
            0 -1 716 -9.5747103914618492e-03</internalNodes>
          <leafValues>
            3.1677019596099854e-01 -9.4652496278285980e-02</leafValues></_>
        <_>
          <internalNodes>
            0 -1 662 -1.1036584619432688e-03</internalNodes>
          <leafValues>
            3.2086873054504395e-01 -1.0190239548683167e-01</leafValues></_>
        <_>
          <internalNodes>
            0 -1 727 3.4790616482496262e-03</internalNodes>
          <leafValues>
            -9.1327525675296783e-02 3.6644375324249268e-01</leafValues></_>
        <_>
          <internalNodes>
            0 -1 804 -1.6181109473109245e-02</internalNodes>
          <leafValues>
            4.3549790978431702e-01 -5.0538707524538040e-02</leafValues></_>
        <_>
          <internalNodes>
            0 -1 167 -7.9443588852882385e-02</internalNodes>
          <leafValues>
            4.2320558428764343e-01 -7.6322086155414581e-02</leafValues></_>
        <_>
          <internalNodes>
            0 -1 907 7.7992468141019344e-03</internalNodes>
          <leafValues>
            -1.1724863946437836e-01 2.2348502278327942e-01</leafValues></_>
        <_>
          <internalNodes>
            0 -1 9 -1.0106766596436501e-02</internalNodes>
          <leafValues>
            -2.9075095057487488e-01 9.7858965396881104e-02</leafValues></_>
        <_>
          <internalNodes>
            0 -1 16 2.4029772728681564e-02</internalNodes>
          <leafValues>
            4.4940803200006485e-02 -6.1275172233581543e-01</leafValues></_>
        <_>
          <internalNodes>
            0 -1 274 6.5692543983459473e-02</internalNodes>
          <leafValues>
            -1.2339307367801666e-01 2.2807276248931885e-01</leafValues></_>
        <_>
          <internalNodes>
            0 -1 344 -2.1421104669570923e-02</internalNodes>
          <leafValues>
            2.0857177674770355e-01 -1.2152113020420074e-01</leafValues></_>
        <_>
          <internalNodes>
            0 -1 719 -3.4102067351341248e-02</internalNodes>
          <leafValues>
            -9.1509819030761719e-01 2.8287533670663834e-02</leafValues></_>
        <_>
          <internalNodes>
            0 -1 682 -2.5575896725058556e-03</internalNodes>
          <leafValues>
            1.9894890487194061e-01 -1.1779987066984177e-01</leafValues></_>
        <_>
          <internalNodes>
            0 -1 374 -8.7813753634691238e-03</internalNodes>
          <leafValues>
            2.2320725023746490e-01 -1.0885991156101227e-01</leafValues></_>
        <_>
          <internalNodes>
            0 -1 0 -4.0476536378264427e-04</internalNodes>
          <leafValues>
            -2.5729015469551086e-01 9.7513906657695770e-02</leafValues></_>
        <_>
          <internalNodes>
            0 -1 782 -2.4242147337645292e-03</internalNodes>
          <leafValues>
            2.1057330071926117e-01 -1.1728070676326752e-01</leafValues></_>
        <_>
          <internalNodes>
            0 -1 791 -1.0923466179519892e-03</internalNodes>
          <leafValues>
            2.8024551272392273e-01 -9.0451970696449280e-02</leafValues></_>
        <_>
          <internalNodes>
            0 -1 712 -8.6231902241706848e-03</internalNodes>
          <leafValues>
            -4.4961968064308167e-01 6.0665201395750046e-02</leafValues></_>
        <_>
          <internalNodes>
            0 -1 1003 -1.0373710654675961e-02</internalNodes>
          <leafValues>
            2.5636395812034607e-01 -9.6407689154148102e-02</leafValues></_>
        <_>
          <internalNodes>
            0 -1 563 -3.9238259196281433e-02</internalNodes>
          <leafValues>
            -3.1261298060417175e-01 7.9919122159481049e-02</leafValues></_>
        <_>
          <internalNodes>
            0 -1 411 -6.2691261991858482e-03</internalNodes>
          <leafValues>
            2.1626305580139160e-01 -1.1900249123573303e-01</leafValues></_>
        <_>
          <internalNodes>
            0 -1 133 -4.8128552734851837e-03</internalNodes>
          <leafValues>
            3.3937337994575500e-01 -7.7471390366554260e-02</leafValues></_>
        <_>
          <internalNodes>
            0 -1 689 -3.0261266976594925e-02</internalNodes>
          <leafValues>
            5.5692434310913086e-01 -4.2535386979579926e-02</leafValues></_>
        <_>
          <internalNodes>
            0 -1 345 -5.2092608530074358e-04</internalNodes>
          <leafValues>
            2.2427047789096832e-01 -1.0440531373023987e-01</leafValues></_>
        <_>
          <internalNodes>
            0 -1 1108 1.6299352049827576e-02</internalNodes>
          <leafValues>
            -6.2731906771659851e-02 4.1138768196105957e-01</leafValues></_>
        <_>
          <internalNodes>
            0 -1 24 -1.6019590198993683e-02</internalNodes>
          <leafValues>
            3.5338240861892700e-01 -6.8127684295177460e-02</leafValues></_>
        <_>
          <internalNodes>
            0 -1 302 2.0211424678564072e-02</internalNodes>
          <leafValues>
            3.5736691206693649e-02 -7.4173468351364136e-01</leafValues></_>
        <_>
          <internalNodes>
            0 -1 13 1.1735795997083187e-03</internalNodes>
          <leafValues>
            7.6937705278396606e-02 -2.7731791138648987e-01</leafValues></_>
        <_>
          <internalNodes>
            0 -1 909 -1.0526159778237343e-02</internalNodes>
          <leafValues>
            2.6206687092781067e-01 -8.0618388950824738e-02</leafValues></_>
        <_>
          <internalNodes>
            0 -1 549 -3.1296931207180023e-02</internalNodes>
          <leafValues>
            5.7864528894424438e-01 -3.9032440632581711e-02</leafValues></_>
        <_>
          <internalNodes>
            0 -1 41 2.0928289741277695e-03</internalNodes>
          <leafValues>
            -1.1621636897325516e-01 2.0657825469970703e-01</leafValues></_>
        <_>
          <internalNodes>
            0 -1 721 4.5431621372699738e-02</internalNodes>
          <leafValues>
            2.1049829199910164e-02 -9.0149414539337158e-01</leafValues></_>
        <_>
          <internalNodes>
            0 -1 992 -1.3017873279750347e-03</internalNodes>
          <leafValues>
            -2.5314411520957947e-01 9.3014903366565704e-02</leafValues></_>
        <_>
          <internalNodes>
            0 -1 1028 9.5626572147011757e-04</internalNodes>
          <leafValues>
            7.5487792491912842e-02 -3.2770043611526489e-01</leafValues></_>
        <_>
          <internalNodes>
            0 -1 558 -3.3899728208780289e-02</internalNodes>
          <leafValues>
            -4.1324537992477417e-01 5.6842125952243805e-02</leafValues></_>
        <_>
          <internalNodes>
            0 -1 296 3.4088604152202606e-02</internalNodes>
          <leafValues>
            4.5542962849140167e-02 -4.6710014343261719e-01</leafValues></_>
        <_>
          <internalNodes>
            0 -1 449 -1.4933095313608646e-02</internalNodes>
          <leafValues>
            2.6909562945365906e-01 -9.3488819897174835e-02</leafValues></_>
        <_>
          <internalNodes>
            0 -1 502 1.2431904906406999e-03</internalNodes>
          <leafValues>
            -1.1841505765914917e-01 2.1925246715545654e-01</leafValues></_>
        <_>
          <internalNodes>
            0 -1 454 -2.2502437233924866e-02</internalNodes>
          <leafValues>
            5.6975984573364258e-01 -4.7379072755575180e-02</leafValues></_>
        <_>
          <internalNodes>
            0 -1 614 -1.0400485247373581e-02</internalNodes>
          <leafValues>
            -4.2001962661743164e-01 7.1737706661224365e-02</leafValues></_>
        <_>
          <internalNodes>
            0 -1 527 -5.5996831506490707e-03</internalNodes>
          <leafValues>
            3.7087574601173401e-01 -9.1314055025577545e-02</leafValues></_>
        <_>
          <internalNodes>
            0 -1 488 8.4911156445741653e-03</internalNodes>
          <leafValues>
            -8.4365606307983398e-02 2.7183663845062256e-01</leafValues></_>
        <_>
          <internalNodes>
            0 -1 360 -1.8998149782419205e-02</internalNodes>
          <leafValues>
            -5.8280807733535767e-01 4.0816482156515121e-02</leafValues></_>
        <_>
          <internalNodes>
            0 -1 703 -3.0056838877499104e-03</internalNodes>
          <leafValues>
            -3.2427582144737244e-01 6.9435231387615204e-02</leafValues></_>
        <_>
          <internalNodes>
            0 -1 1136 -2.9638032428920269e-03</internalNodes>
          <leafValues>
            2.4233707785606384e-01 -1.0097056627273560e-01</leafValues></_>
        <_>
          <internalNodes>
            0 -1 1034 -1.1125326273031533e-04</internalNodes>
          <leafValues>
            1.6665904223918915e-01 -1.4947688579559326e-01</leafValues></_>
        <_>
          <internalNodes>
            0 -1 739 4.0026825445238501e-05</internalNodes>
          <leafValues>
            -1.5202042460441589e-01 1.6422025859355927e-01</leafValues></_>
        <_>
          <internalNodes>
            0 -1 750 -1.4388595707714558e-02</internalNodes>
          <leafValues>
            4.1507047414779663e-01 -5.7381730526685715e-02</leafValues></_>
        <_>
          <internalNodes>
            0 -1 139 8.6670905351638794e-02</internalNodes>
          <leafValues>
            -3.6728240549564362e-02 6.0916107892990112e-01</leafValues></_>
        <_>
          <internalNodes>
            0 -1 823 -5.0736382603645325e-02</internalNodes>
          <leafValues>
            -4.3813323974609375e-01 5.3595270961523056e-02</leafValues></_>
        <_>
          <internalNodes>
            0 -1 991 -7.7786669135093689e-03</internalNodes>
          <leafValues>
            2.1177157759666443e-01 -1.2046803534030914e-01</leafValues></_>
        <_>
          <internalNodes>
            0 -1 129 -1.2028038036078215e-03</internalNodes>
          <leafValues>
            1.7239335179328918e-01 -1.4200548827648163e-01</leafValues></_>
        <_>
          <internalNodes>
            0 -1 498 -1.0381899774074554e-03</internalNodes>
          <leafValues>
            2.8558513522148132e-01 -7.5885318219661713e-02</leafValues></_>
        <_>
          <internalNodes>
            0 -1 69 -3.3830683678388596e-02</internalNodes>
          <leafValues>
            -7.7306503057479858e-01 3.1018381938338280e-02</leafValues></_>
        <_>
          <internalNodes>
            0 -1 494 -8.6404513567686081e-03</internalNodes>
          <leafValues>
            2.6010811328887939e-01 -8.8486954569816589e-02</leafValues></_>
        <_>
          <internalNodes>
            0 -1 717 -1.0784019250422716e-03</internalNodes>
          <leafValues>
            1.8905662000179291e-01 -1.5267561376094818e-01</leafValues></_>
        <_>
          <internalNodes>
            0 -1 486 -1.0223990306258202e-02</internalNodes>
          <leafValues>
            -6.2200552225112915e-01 4.4520139694213867e-02</leafValues></_>
        <_>
          <internalNodes>
            0 -1 806 4.7781264584045857e-05</internalNodes>
          <leafValues>
            -1.3895982503890991e-01 1.6278718411922455e-01</leafValues></_></weakClassifiers></_>
    <!-- stage 10 -->
    <_>
      <maxWeakCount>89</maxWeakCount>
      <stageThreshold>-8.6773419380187988e-01</stageThreshold>
      <weakClassifiers>
        <_>
          <internalNodes>
            0 -1 100 4.2680390179157257e-02</internalNodes>
          <leafValues>
            -2.2838138043880463e-01 1.2868949770927429e-01</leafValues></_>
        <_>
          <internalNodes>
            0 -1 79 1.0379998013377190e-02</internalNodes>
          <leafValues>
            4.3620645999908447e-02 -4.9856767058372498e-01</leafValues></_>
        <_>
          <internalNodes>
            0 -1 79 1.0337533429265022e-02</internalNodes>
          <leafValues>
            -2.0492533221840858e-03 1.</leafValues></_>
        <_>
          <internalNodes>
            0 -1 79 1.0295451618731022e-02</internalNodes>
          <leafValues>
            8.4344105562195182e-04 -1.</leafValues></_>
        <_>
          <internalNodes>
            0 -1 79 1.0227872058749199e-02</internalNodes>
          <leafValues>
            -2.2702577989548445e-03 1.</leafValues></_>
        <_>
          <internalNodes>
            0 -1 79 1.0218990966677666e-02</internalNodes>
          <leafValues>
            4.2225228389725089e-04 -1.</leafValues></_>
        <_>
          <internalNodes>
            0 -1 79 1.0196490213274956e-02</internalNodes>
          <leafValues>
            -4.3053264380432665e-04 1.</leafValues></_>
        <_>
          <internalNodes>
            0 -1 79 1.0174609720706940e-02</internalNodes>
          <leafValues>
            4.2261305497959256e-04 -1.</leafValues></_>
        <_>
          <internalNodes>
            0 -1 79 1.0147762484848499e-02</internalNodes>
          <leafValues>
            -6.1593437567353249e-04 1.</leafValues></_>
        <_>
          <internalNodes>
            0 -1 79 9.8760407418012619e-03</internalNodes>
          <leafValues>
            3.1367943156510592e-03 -9.8284053802490234e-01</leafValues></_>
        <_>
          <internalNodes>
            0 -1 79 9.8177175968885422e-03</internalNodes>
          <leafValues>
            -1.2367332819849253e-03 1.</leafValues></_>
        <_>
          <internalNodes>
            0 -1 79 9.7008384764194489e-03</internalNodes>
          <leafValues>
            4.2652699630707502e-04 -9.8347103595733643e-01</leafValues></_>
        <_>
          <internalNodes>
            0 -1 79 9.6132196485996246e-03</internalNodes>
          <leafValues>
            -6.1952107353135943e-04 1.</leafValues></_>
        <_>
          <internalNodes>
            0 -1 79 9.4906333833932877e-03</internalNodes>
          <leafValues>
            2.3169743362814188e-03 -9.8413300514221191e-01</leafValues></_>
        <_>
          <internalNodes>
            0 -1 79 9.4822077080607414e-03</internalNodes>
          <leafValues>
            -6.2082440126687288e-04 1.</leafValues></_>
        <_>
          <internalNodes>
            0 -1 79 9.3903616070747375e-03</internalNodes>
          <leafValues>
            1.6581908566877246e-03 -9.9115538597106934e-01</leafValues></_>
        <_>
          <internalNodes>
            0 -1 79 9.3778017908334732e-03</internalNodes>
          <leafValues>
            -4.3486533104442060e-04 1.</leafValues></_>
        <_>
          <internalNodes>
            0 -1 79 9.2620961368083954e-03</internalNodes>
          <leafValues>
            1.6605735290795565e-03 -9.8516941070556641e-01</leafValues></_>
        <_>
          <internalNodes>
            0 -1 79 9.2438356950879097e-03</internalNodes>
          <leafValues>
            -1.0588496224954724e-03 1.</leafValues></_>
        <_>
          <internalNodes>
            0 -1 79 9.2131197452545166e-03</internalNodes>
          <leafValues>
            4.3248391011729836e-04 -9.9171638488769531e-01</leafValues></_>
        <_>
          <internalNodes>
            0 -1 79 9.1801509261131287e-03</internalNodes>
          <leafValues>
            -6.2400457682088017e-04 1.</leafValues></_>
        <_>
          <internalNodes>
            0 -1 79 9.1722263023257256e-03</internalNodes>
          <leafValues>
            4.3285865103825927e-04 -9.9187672138214111e-01</leafValues></_>
        <_>
          <internalNodes>
            0 -1 79 9.1003347188234329e-03</internalNodes>
          <leafValues>
            -1.0624247370287776e-03 1.</leafValues></_>
        <_>
          <internalNodes>
            0 -1 79 9.0347565710544586e-03</internalNodes>
          <leafValues>
            8.6684268899261951e-04 -9.9205493927001953e-01</leafValues></_>
        <_>
          <internalNodes>
            0 -1 79 9.0022813528776169e-03</internalNodes>
          <leafValues>
            -8.7643181905150414e-04 1.</leafValues></_>
        <_>
          <internalNodes>
            0 -1 79 8.9264474809169769e-03</internalNodes>
          <leafValues>
            1.0548651916906238e-03 -9.9223572015762329e-01</leafValues></_>
        <_>
          <internalNodes>
            0 -1 88 -1.4321953058242798e-02</internalNodes>
          <leafValues>
            -8.1493043899536133e-01 5.8838073164224625e-02</leafValues></_>
        <_>
          <internalNodes>
            0 -1 1148 3.1540855765342712e-02</internalNodes>
          <leafValues>
            5.7991668581962585e-02 -4.7302782535552979e-01</leafValues></_>
        <_>
          <internalNodes>
            0 -1 963 7.6607376337051392e-02</internalNodes>
          <leafValues>
            -7.0867113769054413e-02 5.0095570087432861e-01</leafValues></_>
        <_>
          <internalNodes>
            0 -1 537 2.5359388440847397e-02</internalNodes>
          <leafValues>
            -8.3809971809387207e-02 4.0402013063430786e-01</leafValues></_>
        <_>
          <internalNodes>
            0 -1 632 -2.0480749011039734e-01</internalNodes>
          <leafValues>
            -7.9288166761398315e-01 2.1351180970668793e-02</leafValues></_>
        <_>
          <internalNodes>
            0 -1 1021 -1.7928890883922577e-02</internalNodes>
          <leafValues>
            -4.6114844083786011e-01 5.1473744213581085e-02</leafValues></_>
        <_>
          <internalNodes>
            0 -1 1098 -1.7670080997049809e-03</internalNodes>
          <leafValues>
            2.3004005849361420e-01 -1.0799986869096756e-01</leafValues></_>
        <_>
          <internalNodes>
            0 -1 1095 3.5280631855130196e-03</internalNodes>
          <leafValues>
            -9.6363879740238190e-02 3.2856857776641846e-01</leafValues></_>
        <_>
          <internalNodes>
            0 -1 948 -1.8591390922665596e-02</internalNodes>
          <leafValues>
            -6.9233661890029907e-01 3.1756497919559479e-02</leafValues></_>
        <_>
          <internalNodes>
            0 -1 285 -3.1617503613233566e-02</internalNodes>
          <leafValues>
            2.6916339993476868e-01 -9.3178562819957733e-02</leafValues></_>
        <_>
          <internalNodes>
            0 -1 923 -7.8174322843551636e-03</internalNodes>
          <leafValues>
            -4.6649765968322754e-01 7.1987077593803406e-02</leafValues></_>
        <_>
          <internalNodes>
            0 -1 305 -1.6870483756065369e-01</internalNodes>
          <leafValues>
            6.4054423570632935e-01 -5.0241522490978241e-02</leafValues></_>
        <_>
          <internalNodes>
            0 -1 481 2.9930587857961655e-02</internalNodes>
          <leafValues>
            -1.0101597756147385e-01 2.0233854651451111e-01</leafValues></_>
        <_>
          <internalNodes>
            0 -1 59 1.1157546937465668e-01</internalNodes>
          <leafValues>
            3.9450913667678833e-02 -5.2668917179107666e-01</leafValues></_>
        <_>
          <internalNodes>
            0 -1 746 6.7330144345760345e-02</internalNodes>
          <leafValues>
            -5.5276606231927872e-02 3.9634686708450317e-01</leafValues></_>
        <_>
          <internalNodes>
            0 -1 67 -5.4788924753665924e-02</internalNodes>
          <leafValues>
            -6.4236223697662354e-01 3.1236624345183372e-02</leafValues></_>
        <_>
          <internalNodes>
            0 -1 929 2.4966601282358170e-02</internalNodes>
          <leafValues>
            1.9240517169237137e-02 -9.4201886653900146e-01</leafValues></_>
        <_>
          <internalNodes>
            0 -1 925 -4.2094644159078598e-03</internalNodes>
          <leafValues>
            2.0037898421287537e-01 -1.1603627353906631e-01</leafValues></_>
        <_>
          <internalNodes>
            0 -1 5 -2.4589594453573227e-02</internalNodes>
          <leafValues>
            3.4745034575462341e-01 -5.8992996811866760e-02</leafValues></_>
        <_>
          <internalNodes>
            0 -1 140 -4.6144397929310799e-03</internalNodes>
          <leafValues>
            2.5632682442665100e-01 -9.1522313654422760e-02</leafValues></_>
        <_>
          <internalNodes>
            0 -1 1005 -2.1316001657396555e-03</internalNodes>
          <leafValues>
            2.5407549738883972e-01 -9.6088148653507233e-02</leafValues></_>
        <_>
          <internalNodes>
            0 -1 143 -8.7767411023378372e-03</internalNodes>
          <leafValues>
            -4.7035956382751465e-01 5.0000187009572983e-02</leafValues></_>
        <_>
          <internalNodes>
            0 -1 295 -6.1310437740758061e-04</internalNodes>
          <leafValues>
            2.2569526731967926e-01 -9.8632059991359711e-02</leafValues></_>
        <_>
          <internalNodes>
            0 -1 458 -1.0134822130203247e-01</internalNodes>
          <leafValues>
            3.9132130146026611e-01 -6.7607365548610687e-02</leafValues></_>
        <_>
          <internalNodes>
            0 -1 51 -3.3823987469077110e-03</internalNodes>
          <leafValues>
            2.8872922062873840e-01 -8.2298390567302704e-02</leafValues></_>
        <_>
          <internalNodes>
            0 -1 867 -5.5442586541175842e-02</internalNodes>
          <leafValues>
            7.2803461551666260e-01 -3.4802831709384918e-02</leafValues></_>
        <_>
          <internalNodes>
            0 -1 951 7.7958160545676947e-04</internalNodes>
          <leafValues>
            -8.7228789925575256e-02 2.6235568523406982e-01</leafValues></_>
        <_>
          <internalNodes>
            0 -1 949 9.0477836783975363e-04</internalNodes>
          <leafValues>
            -1.1446700990200043e-01 2.1944044530391693e-01</leafValues></_>
        <_>
          <internalNodes>
            0 -1 539 -1.2431715428829193e-01</internalNodes>
          <leafValues>
            4.9926742911338806e-01 -4.5593965798616409e-02</leafValues></_>
        <_>
          <internalNodes>
            0 -1 246 -5.3973950445652008e-02</internalNodes>
          <leafValues>
            -6.3078331947326660e-01 3.6769721657037735e-02</leafValues></_>
        <_>
          <internalNodes>
            0 -1 760 -3.2991161569952965e-03</internalNodes>
          <leafValues>
            -5.6300705671310425e-01 3.8676571100950241e-02</leafValues></_>
        <_>
          <internalNodes>
            0 -1 208 2.0623962581157684e-01</internalNodes>
          <leafValues>
            -7.1266651153564453e-02 3.1835904717445374e-01</leafValues></_>
        <_>
          <internalNodes>
            0 -1 164 7.7146239345893264e-04</internalNodes>
          <leafValues>
            -1.1569056659936905e-01 1.9310656189918518e-01</leafValues></_>
        <_>
          <internalNodes>
            0 -1 450 -1.9635563716292381e-02</internalNodes>
          <leafValues>
            2.0047150552272797e-01 -1.2251687794923782e-01</leafValues></_>
        <_>
          <internalNodes>
            0 -1 91 9.1918813996016979e-04</internalNodes>
          <leafValues>
            -1.0496656596660614e-01 2.2593741118907928e-01</leafValues></_>
        <_>
          <internalNodes>
            0 -1 92 -3.2822533976286650e-03</internalNodes>
          <leafValues>
            2.4743577837944031e-01 -9.4800211489200592e-02</leafValues></_>
        <_>
          <internalNodes>
            0 -1 905 4.7819530591368675e-03</internalNodes>
          <leafValues>
            4.6043839305639267e-02 -4.6587440371513367e-01</leafValues></_>
        <_>
          <internalNodes>
            0 -1 940 -2.8284937143325806e-03</internalNodes>
          <leafValues>
            1.9314977526664734e-01 -1.0848309844732285e-01</leafValues></_>
        <_>
          <internalNodes>
            0 -1 20 -1.5664294362068176e-02</internalNodes>
          <leafValues>
            -8.5328620672225952e-01 2.2525245323777199e-02</leafValues></_>
        <_>
          <internalNodes>
            0 -1 726 -1.7555844038724899e-02</internalNodes>
          <leafValues>
            -6.9517123699188232e-01 2.5302749127149582e-02</leafValues></_>
        <_>
          <internalNodes>
            0 -1 935 -3.7047488149255514e-04</internalNodes>
          <leafValues>
            1.7805570363998413e-01 -1.2552264332771301e-01</leafValues></_>
        <_>
          <internalNodes>
            0 -1 883 -3.7020225077867508e-02</internalNodes>
          <leafValues>
            -7.1300196647644043e-01 3.0460800975561142e-02</leafValues></_>
        <_>
          <internalNodes>
            0 -1 554 -4.7872524708509445e-02</internalNodes>
          <leafValues>
            6.5162724256515503e-01 -4.1238915175199509e-02</leafValues></_>
        <_>
          <internalNodes>
            0 -1 562 4.1329592932015657e-05</internalNodes>
          <leafValues>
            -1.7036895453929901e-01 1.3820876181125641e-01</leafValues></_>
        <_>
          <internalNodes>
            0 -1 234 -1.0100463405251503e-02</internalNodes>
          <leafValues>
            2.4537093937397003e-01 -9.7872875630855560e-02</leafValues></_>
        <_>
          <internalNodes>
            0 -1 1076 6.1920768348500133e-04</internalNodes>
          <leafValues>
            8.2172252237796783e-02 -2.6438248157501221e-01</leafValues></_>
        <_>
          <internalNodes>
            0 -1 968 1.5732519328594208e-02</internalNodes>
          <leafValues>
            -1.0042358189821243e-01 2.2928540408611298e-01</leafValues></_>
        <_>
          <internalNodes>
            0 -1 1134 1.0536763817071915e-02</internalNodes>
          <leafValues>
            -7.7155657112598419e-02 3.7343493103981018e-01</leafValues></_>
        <_>
          <internalNodes>
            0 -1 997 2.1325722336769104e-02</internalNodes>
          <leafValues>
            4.5974195003509521e-02 -5.1683044433593750e-01</leafValues></_>
        <_>
          <internalNodes>
            0 -1 387 7.2220191359519958e-02</internalNodes>
          <leafValues>
            -5.8017045259475708e-02 4.3220502138137817e-01</leafValues></_>
        <_>
          <internalNodes>
            0 -1 106 -6.1158058233559132e-03</internalNodes>
          <leafValues>
            -3.4824514389038086e-01 6.4157560467720032e-02</leafValues></_>
        <_>
          <internalNodes>
            0 -1 22 -3.6043837666511536e-02</internalNodes>
          <leafValues>
            -7.5319147109985352e-01 2.5598756968975067e-02</leafValues></_>
        <_>
          <internalNodes>
            0 -1 792 3.6686003208160400e-02</internalNodes>
          <leafValues>
            1.5208920463919640e-02 -9.0493738651275635e-01</leafValues></_>
        <_>
          <internalNodes>
            0 -1 677 1.2636859901249409e-03</internalNodes>
          <leafValues>
            -1.2028111517429352e-01 1.7264999449253082e-01</leafValues></_>
        <_>
          <internalNodes>
            0 -1 735 -4.5454426435753703e-04</internalNodes>
          <leafValues>
            1.9593532383441925e-01 -1.2350780516862869e-01</leafValues></_>
        <_>
          <internalNodes>
            0 -1 639 -4.3746847950387746e-05</internalNodes>
          <leafValues>
            1.5792810916900635e-01 -1.2793287634849548e-01</leafValues></_>
        <_>
          <internalNodes>
            0 -1 859 -5.7018785737454891e-03</internalNodes>
          <leafValues>
            2.3216375708580017e-01 -9.8457962274551392e-02</leafValues></_>
        <_>
          <internalNodes>
            0 -1 408 4.4778155279345810e-04</internalNodes>
          <leafValues>
            -1.0199529677629471e-01 2.0212924480438232e-01</leafValues></_>
        <_>
          <internalNodes>
            0 -1 778 -2.7160802856087685e-03</internalNodes>
          <leafValues>
            1.8937981128692627e-01 -1.1606748402118683e-01</leafValues></_>
        <_>
